<?xml version="1.0"?>
<opencv_storage>
<opencv_ml_svm>
  <format>3</format>
  <svmType>C_SVC</svmType>
  <kernel>
    <type>LINEAR</type></kernel>
  <C>1.</C>
  <term_criteria><epsilon>1.1920928955078125e-07</epsilon>
    <iterations>1000</iterations></term_criteria>
  <var_count>2500</var_count>
  <class_count>2</class_count>
  <class_labels type_id="opencv-matrix">
    <rows>2</rows>
    <cols>1</cols>
    <dt>i</dt>
    <data>
      0 1</data></class_labels>
  <sv_total>1</sv_total>
  <support_vectors>
    <_>
      -2.11758237e-22 -2.11758237e-22 -2.11758237e-22 -2.11758237e-22
      -2.11758237e-22 -2.11758237e-22 -2.11758237e-22 -2.11758237e-22
      -2.11758237e-22 -2.11758237e-22 -2.11758237e-22 -2.11758237e-22
      -2.11758237e-22 -2.11758237e-22 -2.11758237e-22 -2.11758237e-22
      -2.11758237e-22 -2.11758237e-22 -2.11758237e-22 -2.11758237e-22
      -2.11758237e-22 -2.11758237e-22 -2.11758237e-22 -2.11758237e-22
      -2.11758237e-22 -2.11758237e-22 -2.11758237e-22 -2.11758237e-22
      -2.11758237e-22 -2.11758237e-22 -2.11758237e-22 -2.11758237e-22
      -2.11758237e-22 -2.11758237e-22 -2.11758237e-22 -2.11758237e-22
      -2.11758237e-22 -2.11758237e-22 -2.11758237e-22 -2.11758237e-22
      -2.11758237e-22 -2.11758237e-22 -2.11758237e-22 -2.11758237e-22
      -2.11758237e-22 -2.11758237e-22 -2.11758237e-22 -2.11758237e-22
      -2.11758237e-22 -2.11758237e-22 -2.11758237e-22 -2.11758237e-22
      -2.11758237e-22 -2.11758237e-22 -2.11758237e-22 -2.11758237e-22
      -2.11758237e-22 -2.11758237e-22 -2.11758237e-22 -2.11758237e-22
      -2.11758237e-22 -2.11758237e-22 -2.11758237e-22 -2.11758237e-22
      -2.11758237e-22 -2.11758237e-22 -2.11758237e-22 -2.11758237e-22
      -2.11758237e-22 -2.11758237e-22 -2.11758237e-22 -2.11758237e-22
      -2.11758237e-22 -2.11758237e-22 -2.11758237e-22 -2.11758237e-22
      -2.11758237e-22 -2.11758237e-22 -2.11758237e-22 -2.11758237e-22
      -2.11758237e-22 -2.11758237e-22 -2.11758237e-22 -2.11758237e-22
      -2.11758237e-22 -2.11758237e-22 -2.11758237e-22 -2.11758237e-22
      -2.11758237e-22 -2.11758237e-22 -2.11758237e-22 -2.11758237e-22
      -2.11758237e-22 -2.11758237e-22 -2.11758237e-22 -2.11758237e-22
      -2.11758237e-22 -2.11758237e-22 -2.11758237e-22 -2.11758237e-22
      -2.11758237e-22 -2.11758237e-22 -2.11758237e-22 -2.11758237e-22
      -2.11758237e-22 -2.11758237e-22 -2.11758237e-22 -2.11758237e-22
      -2.11758237e-22 -2.11758237e-22 -2.11758237e-22 -2.11758237e-22
      -2.11758237e-22 -2.11758237e-22 -2.11758237e-22 -2.11758237e-22
      -2.11758237e-22 -2.11758237e-22 -2.11758237e-22 -2.11758237e-22
      -2.11758237e-22 -2.11758237e-22 -2.11758237e-22 -2.11758237e-22
      -2.11758237e-22 -2.11758237e-22 -2.11758237e-22 -2.11758237e-22
      -2.11758237e-22 -2.11758237e-22 -2.11758237e-22 -2.11758237e-22
      -2.11758237e-22 -2.11758237e-22 -2.11758237e-22 -2.11758237e-22
      -2.11758237e-22 -2.11758237e-22 -2.11758237e-22 -2.11758237e-22
      -2.11758237e-22 -2.11758237e-22 -2.11758237e-22 -2.11758237e-22
      -2.11758237e-22 -2.11758237e-22 -2.11758237e-22 -2.11758237e-22
      -2.11758237e-22 -2.11758237e-22 -2.11758237e-22 -2.11758237e-22
      -2.11758237e-22 -2.11758237e-22 -2.11758237e-22 -2.11758237e-22
      -2.11758237e-22 -2.11758237e-22 -2.11758237e-22 -2.11758237e-22
      -2.11758237e-22 -2.11758237e-22 -2.11758237e-22 -2.11758237e-22
      -2.11758237e-22 -2.11758237e-22 -2.11758237e-22 -2.11758237e-22
      -2.11758237e-22 -2.11758237e-22 -2.11758237e-22 -2.11758237e-22
      -2.11758237e-22 -2.11758237e-22 -2.11758237e-22 -2.11758237e-22
      -2.11758237e-22 -2.11758237e-22 -2.11758237e-22 -2.11758237e-22
      -2.11758237e-22 -2.11758237e-22 -2.11758237e-22 -2.11758237e-22
      -2.11758237e-22 -2.11758237e-22 -2.11758237e-22 -2.11758237e-22
      -2.11758237e-22 -2.11758237e-22 -2.11758237e-22 -2.11758237e-22
      -2.11758237e-22 -2.11758237e-22 -2.11758237e-22 -2.11758237e-22
      -2.11758237e-22 -2.11758237e-22 -2.11758237e-22 -2.11758237e-22
      -2.11758237e-22 -2.11758237e-22 -2.11758237e-22 -2.11758237e-22
      -2.11758237e-22 -2.11758237e-22 -2.11758237e-22 -2.11758237e-22
      -2.11758237e-22 -2.11758237e-22 -2.11758237e-22 -2.11758237e-22
      -2.11758237e-22 -2.11758237e-22 -2.11758237e-22 -2.11758237e-22
      -2.11758237e-22 -2.11758237e-22 -2.11758237e-22 -2.11758237e-22
      -2.11758237e-22 -2.11758237e-22 -2.11758237e-22 -2.11758237e-22
      -2.11758237e-22 -2.11758237e-22 -2.11758237e-22 -2.11758237e-22
      -2.11758237e-22 -2.11758237e-22 -2.11758237e-22 -2.11758237e-22
      -2.11758237e-22 -2.11758237e-22 -2.11758237e-22 -2.11758237e-22
      -2.11758237e-22 -2.11758237e-22 -2.11758237e-22 -2.11758237e-22
      -2.11758237e-22 -2.11758237e-22 -2.11758237e-22 -2.11758237e-22
      -2.11758237e-22 -2.11758237e-22 -2.11758237e-22 -2.11758237e-22
      -2.11758237e-22 -2.11758237e-22 -2.11758237e-22 -2.11758237e-22
      -2.11758237e-22 -2.11758237e-22 -2.11758237e-22 -2.11758237e-22
      -2.11758237e-22 -2.11758237e-22 -2.11758237e-22 -2.11758237e-22
      -2.11758237e-22 -2.11758237e-22 -2.11758237e-22 -2.11758237e-22
      -2.11758237e-22 -2.11758237e-22 -2.11758237e-22 -2.11758237e-22
      -2.11758237e-22 -2.11758237e-22 -2.11758237e-22 -2.11758237e-22
      -2.11758237e-22 -2.11758237e-22 -2.11758237e-22 -2.11758237e-22
      -2.11758237e-22 -2.11758237e-22 -2.11758237e-22 -2.11758237e-22
      -2.11758237e-22 -2.11758237e-22 -2.11758237e-22 -2.11758237e-22
      -2.11758237e-22 -2.11758237e-22 -2.11758237e-22 -2.11758237e-22
      -2.11758237e-22 -2.11758237e-22 -2.11758237e-22 -2.11758237e-22
      -2.11758237e-22 -2.11758237e-22 -2.11758237e-22 -2.11758237e-22
      -2.11758237e-22 -2.11758237e-22 -2.11758237e-22 -2.11758237e-22
      -2.11758237e-22 -2.11758237e-22 -2.11758237e-22 -2.11758237e-22
      -2.11758237e-22 -2.11758237e-22 -2.11758237e-22 -2.11758237e-22
      -2.11758237e-22 -2.11758237e-22 -2.11758237e-22 -2.11758237e-22
      -2.11758237e-22 -2.11758237e-22 -2.11758237e-22 -2.11758237e-22
      -2.11758237e-22 -2.11758237e-22 -2.11758237e-22 -2.11758237e-22
      -2.11758237e-22 -2.11758237e-22 -2.11758237e-22 -2.11758237e-22
      -2.11758237e-22 -2.11758237e-22 -2.11758237e-22 -2.11758237e-22
      -2.11758237e-22 -2.11758237e-22 -2.11758237e-22 -2.11758237e-22
      -2.11758237e-22 -2.11758237e-22 -2.11758237e-22 -2.11758237e-22
      -2.11758237e-22 -2.11758237e-22 -2.11758237e-22 -2.11758237e-22
      -2.11758237e-22 -2.11758237e-22 -2.11758237e-22 -2.11758237e-22
      -2.11758237e-22 -2.11758237e-22 -2.11758237e-22 -2.11758237e-22
      -2.11758237e-22 -2.11758237e-22 -2.11758237e-22 -2.11758237e-22
      -2.11758237e-22 -2.11758237e-22 -2.11758237e-22 -2.11758237e-22
      -2.11758237e-22 -2.11758237e-22 -2.11758237e-22 -2.11758237e-22
      -2.11758237e-22 -2.11758237e-22 -2.11758237e-22 -2.11758237e-22
      -2.11758237e-22 -2.11758237e-22 -2.11758237e-22 -2.11758237e-22
      -2.11758237e-22 -2.11758237e-22 -2.11758237e-22 -2.11758237e-22
      -2.11758237e-22 -2.11758237e-22 -2.11758237e-22 -2.11758237e-22
      -2.11758237e-22 -2.11758237e-22 -2.11758237e-22 -2.11758237e-22
      -2.11758237e-22 -2.11758237e-22 -2.11758237e-22 -2.11758237e-22
      -2.11758237e-22 -2.11758237e-22 -2.11758237e-22 -2.11758237e-22
      -2.11758237e-22 -2.11758237e-22 -2.11758237e-22 -2.11758237e-22
      -2.11758237e-22 -2.11758237e-22 -2.11758237e-22 -2.11758237e-22
      -2.11758237e-22 -2.11758237e-22 -2.11758237e-22 -2.11758237e-22
      -2.11758237e-22 -2.11758237e-22 -2.11758237e-22 -2.11758237e-22
      -2.11758237e-22 -2.11758237e-22 -2.11758237e-22 -2.11758237e-22
      -2.11758237e-22 -2.11758237e-22 -2.11758237e-22 -2.11758237e-22
      -2.11758237e-22 -2.11758237e-22 -2.11758237e-22 -2.11758237e-22
      -2.11758237e-22 -2.11758237e-22 -2.11758237e-22 -2.11758237e-22
      -2.11758237e-22 -2.11758237e-22 -1.23548816e-04 -2.11758237e-22
      -1.27938629e-05 -8.29117998e-05 -2.11758237e-22 -6.03329827e-05
      -1.21298915e-04 -2.11758237e-22 -2.11758237e-22 -2.11758237e-22
      -2.11758237e-22 -2.11758237e-22 -2.11758237e-22 -2.11758237e-22
      -2.11758237e-22 -2.11758237e-22 -2.11758237e-22 -2.11758237e-22
      -2.11758237e-22 -2.11758237e-22 -2.11758237e-22 -2.11758237e-22
      -2.11758237e-22 -2.11758237e-22 -2.11758237e-22 -2.11758237e-22
      -2.11758237e-22 -2.11758237e-22 -2.11758237e-22 -2.11758237e-22
      -2.11758237e-22 -2.11758237e-22 -2.11758237e-22 -2.11758237e-22
      -2.11758237e-22 -2.11758237e-22 -2.11758237e-22 -2.11758237e-22
      -2.11758237e-22 -2.11758237e-22 -2.11758237e-22 -2.11758237e-22
      -2.11758237e-22 -2.11758237e-22 -2.11758237e-22 -2.11758237e-22
      -2.11758237e-22 -2.11758237e-22 -2.11758237e-22 -2.11758237e-22
      -2.11758237e-22 -2.11758237e-22 -9.57056618e-05 -2.11758237e-22
      -2.11758237e-22 -6.03329827e-05 -1.21298915e-04 -2.11758237e-22
      -2.11758237e-22 -2.11758237e-22 -2.11758237e-22 -2.11758237e-22
      -2.11758237e-22 -2.11758237e-22 -2.11758237e-22 -2.11758237e-22
      -2.11758237e-22 -2.11758237e-22 -2.11758237e-22 -2.11758237e-22
      -2.11758237e-22 -2.11758237e-22 -2.11758237e-22 -2.11758237e-22
      -2.11758237e-22 -2.11758237e-22 -2.11758237e-22 -2.11758237e-22
      -2.11758237e-22 -2.11758237e-22 -2.11758237e-22 -2.11758237e-22
      -2.11758237e-22 -2.11758237e-22 -2.11758237e-22 -2.11758237e-22
      -2.11758237e-22 -2.11758237e-22 -2.11758237e-22 -2.11758237e-22
      -2.11758237e-22 -2.11758237e-22 -2.11758237e-22 -2.11758237e-22
      -2.11758237e-22 -2.11758237e-22 -2.11758237e-22 -2.11758237e-22
      -2.11758237e-22 -2.11758237e-22 -2.11758237e-22 -8.05348245e-05
      -9.57056618e-05 -2.11758237e-22 -2.11758237e-22 -1.44369013e-04
      -2.11758237e-22 -2.11758237e-22 -2.11758237e-22 -2.11758237e-22
      -2.11758237e-22 -2.11758237e-22 -2.11758237e-22 -2.11758237e-22
      -2.11758237e-22 -2.11758237e-22 -2.11758237e-22 -2.11758237e-22
      -2.11758237e-22 -2.11758237e-22 -2.11758237e-22 -2.11758237e-22
      -2.11758237e-22 -2.11758237e-22 -2.11758237e-22 -2.11758237e-22
      -2.11758237e-22 -2.11758237e-22 -2.11758237e-22 -2.11758237e-22
      -2.11758237e-22 -2.11758237e-22 -2.11758237e-22 -2.11758237e-22
      -2.11758237e-22 -2.11758237e-22 -2.11758237e-22 -2.11758237e-22
      -2.11758237e-22 -2.11758237e-22 -2.11758237e-22 -2.11758237e-22
      -2.11758237e-22 -2.11758237e-22 -2.11758237e-22 -2.11758237e-22
      -2.11758237e-22 -2.11758237e-22 -2.11758237e-22 -2.11758237e-22
      -1.23548816e-04 -2.11758237e-22 -9.57056618e-05 -2.11758237e-22
      -2.11758237e-22 -1.25406950e-04 -5.62249406e-05 -2.11758237e-22
      -2.11758237e-22 -2.11758237e-22 -2.11758237e-22 -2.11758237e-22
      -2.11758237e-22 -2.11758237e-22 -2.11758237e-22 -2.11758237e-22
      -2.11758237e-22 -2.11758237e-22 -2.11758237e-22 -2.11758237e-22
      -2.11758237e-22 -2.11758237e-22 -2.11758237e-22 -2.11758237e-22
      -2.11758237e-22 -2.11758237e-22 -2.11758237e-22 -2.11758237e-22
      -2.11758237e-22 -2.11758237e-22 -2.11758237e-22 -2.11758237e-22
      -2.11758237e-22 -2.11758237e-22 -2.11758237e-22 -2.11758237e-22
      -2.11758237e-22 -2.11758237e-22 -2.11758237e-22 -2.11758237e-22
      -2.11758237e-22 -2.11758237e-22 -2.11758237e-22 -2.11758237e-22
      -2.11758237e-22 -2.11758237e-22 -2.11758237e-22 -2.11758237e-22
      -2.11758237e-22 -2.11758237e-22 -2.11758237e-22 -1.38348347e-04
      -1.69019928e-04 -7.84825534e-05 -1.14237970e-04 -1.49110012e-04
      -1.16557923e-04 -2.11758237e-22 -2.11758237e-22 -2.11758237e-22
      -2.11758237e-22 -2.11758237e-22 -2.11758237e-22 -2.11758237e-22
      -2.11758237e-22 -2.11758237e-22 -2.11758237e-22 -2.11758237e-22
      -2.11758237e-22 -2.11758237e-22 -2.11758237e-22 -2.11758237e-22
      -2.11758237e-22 -2.11758237e-22 -2.11758237e-22 -2.11758237e-22
      -2.11758237e-22 -2.11758237e-22 -2.11758237e-22 -2.11758237e-22
      -2.11758237e-22 -2.11758237e-22 -2.11758237e-22 -2.11758237e-22
      -2.11758237e-22 -2.11758237e-22 -2.11758237e-22 -2.11758237e-22
      -2.11758237e-22 -2.11758237e-22 -2.11758237e-22 -2.11758237e-22
      -2.11758237e-22 -2.11758237e-22 -2.11758237e-22 -2.11758237e-22
      -2.11758237e-22 -2.11758237e-22 -2.11758237e-22 -2.11758237e-22
      -2.43752307e-04 -8.80150401e-05 -1.33422538e-04 -2.44744384e-04
      -2.79078668e-04 -2.78054591e-04 -2.67369294e-04 -2.11758237e-22
      -2.11758237e-22 -2.11758237e-22 -2.11758237e-22 -2.11758237e-22
      -2.11758237e-22 -2.11758237e-22 -2.11758237e-22 -2.11758237e-22
      -2.11758237e-22 -2.11758237e-22 -2.11758237e-22 -2.11758237e-22
      -2.11758237e-22 -2.11758237e-22 -2.11758237e-22 -2.11758237e-22
      -2.11758237e-22 -2.11758237e-22 -2.11758237e-22 -2.11758237e-22
      -2.11758237e-22 -2.11758237e-22 -2.11758237e-22 -2.11758237e-22
      -2.11758237e-22 -2.11758237e-22 -2.11758237e-22 -2.11758237e-22
      -2.11758237e-22 -2.11758237e-22 -2.11758237e-22 -2.11758237e-22
      -2.11758237e-22 -2.11758237e-22 1.15558532e-06 -2.11758237e-22
      -2.11758237e-22 -2.11758237e-22 -2.11758237e-22 -2.11758237e-22
      -2.11758237e-22 -2.11758237e-22 -1.23548816e-04 -1.18392229e-04
      -2.93533318e-04 -2.71897094e-04 -2.89642834e-04 -2.78054591e-04
      -2.67369294e-04 -2.11758237e-22 -2.11758237e-22 -2.11758237e-22
      -2.11758237e-22 -2.11758237e-22 -2.11758237e-22 -2.11758237e-22
      3.61169441e-05 -2.11758237e-22 -2.11758237e-22 -2.11758237e-22
      -2.11758237e-22 -2.11758237e-22 -2.11758237e-22 -2.11758237e-22
      -2.11758237e-22 -2.11758237e-22 -2.11758237e-22 -2.11758237e-22
      -2.11758237e-22 -2.11758237e-22 -2.11758237e-22 -2.11758237e-22
      -2.11758237e-22 -2.11758237e-22 -2.11758237e-22 -2.11758237e-22
      -2.11758237e-22 -2.11758237e-22 -2.11758237e-22 -2.11758237e-22
      -2.11758237e-22 -2.11758237e-22 -2.11758237e-22 -2.11758237e-22
      -2.11758237e-22 3.18976126e-05 -2.11758237e-22 -2.11758237e-22
      -2.11758237e-22 -1.14237970e-04 -1.14237970e-04 -2.11758237e-22
      -2.56368745e-04 -1.93790838e-04 -2.21437585e-04 -2.71897094e-04
      -3.54716816e-04 -2.78054591e-04 -2.67369294e-04 -2.11758237e-22
      -2.11758237e-22 -2.11758237e-22 -2.11758237e-22 3.61169441e-05
      3.61169441e-05 3.61169441e-05 -2.11758237e-22 -2.11758237e-22
      -2.11758237e-22 -2.11758237e-22 -2.11758237e-22 -2.11758237e-22
      -2.11758237e-22 -2.11758237e-22 -2.11758237e-22 -2.11758237e-22
      -2.11758237e-22 -2.11758237e-22 -2.11758237e-22 -2.11758237e-22
      -2.11758237e-22 -2.11758237e-22 -2.11758237e-22 -2.11758237e-22
      -2.11758237e-22 -2.11758237e-22 -2.11758237e-22 -2.11758237e-22
      -2.11758237e-22 -2.11758237e-22 -2.11758237e-22 -2.11758237e-22
      -2.11758237e-22 -2.11758237e-22 -2.11758237e-22 3.18976126e-05
      -2.11758237e-22 -2.11758237e-22 -2.11758237e-22 -1.14237970e-04
      -2.11758237e-22 -2.11758237e-22 -2.50403216e-04 -1.89811835e-04
      -2.93533318e-04 -2.72194186e-04 -4.00738878e-04 -2.12980609e-04
      -2.67369294e-04 -2.11758237e-22 -2.11758237e-22 3.61169441e-05
      3.61169441e-05 3.61169441e-05 -2.11758237e-22 -2.11758237e-22
      -2.11758237e-22 -2.11758237e-22 -2.11758237e-22 -2.11758237e-22
      -2.11758237e-22 -2.11758237e-22 -2.11758237e-22 -2.11758237e-22
      -2.11758237e-22 -2.11758237e-22 -2.11758237e-22 -2.11758237e-22
      -2.11758237e-22 -2.11758237e-22 -2.11758237e-22 -2.11758237e-22
      -2.11758237e-22 -2.11758237e-22 -2.11758237e-22 -2.11758237e-22
      -2.11758237e-22 -2.11758237e-22 -2.11758237e-22 -2.11758237e-22
      -2.11758237e-22 -2.11758237e-22 -2.11758237e-22 -2.11758237e-22
      -2.11758237e-22 3.07420269e-05 -2.11758237e-22 -2.11758237e-22
      -2.11758237e-22 -2.11758237e-22 -1.14237970e-04 -2.11758237e-22
      -2.56368745e-04 -1.77871538e-04 -1.83720709e-04 -3.09911062e-04
      -4.00738878e-04 -1.28944579e-04 -2.67369294e-04 -2.11758237e-22
      3.61169441e-05 3.61169441e-05 -2.11758237e-22 -2.11758237e-22
      -2.11758237e-22 -2.11758237e-22 -2.11758237e-22 -2.11758237e-22
      -2.11758237e-22 -2.11758237e-22 -2.11758237e-22 -2.11758237e-22
      -2.11758237e-22 -2.11758237e-22 -2.11758237e-22 -2.11758237e-22
      -2.11758237e-22 -2.11758237e-22 -2.11758237e-22 -2.11758237e-22
      -2.11758237e-22 -2.11758237e-22 -2.11758237e-22 -2.11758237e-22
      -2.11758237e-22 -2.11758237e-22 -2.11758237e-22 -2.11758237e-22
      -2.11758237e-22 -2.11758237e-22 -2.11758237e-22 -2.11758237e-22
      -2.11758237e-22 -2.11758237e-22 -2.11758237e-22 3.18976126e-05
      3.07420269e-05 -2.11758237e-22 -2.11758237e-22 -2.11758237e-22
      -2.11758237e-22 -6.79183941e-05 -1.32819929e-04 -1.77871538e-04
      -2.21437585e-04 -3.09911062e-04 -3.35664896e-04 -1.28944579e-04
      -2.67369294e-04 -2.11758237e-22 3.61169441e-05 -2.11758237e-22
      -2.11758237e-22 -2.11758237e-22 -2.11758237e-22 -2.11758237e-22
      -2.11758237e-22 -2.11758237e-22 -2.11758237e-22 -2.11758237e-22
      -2.11758237e-22 -2.11758237e-22 -2.11758237e-22 -2.11758237e-22
      -2.11758237e-22 -2.11758237e-22 -2.11758237e-22 -2.11758237e-22
      -2.11758237e-22 -2.11758237e-22 -2.11758237e-22 -2.11758237e-22
      -2.11758237e-22 -2.11758237e-22 -2.11758237e-22 -2.11758237e-22
      -2.11758237e-22 -2.11758237e-22 -2.11758237e-22 -2.11758237e-22
      -2.11758237e-22 -2.11758237e-22 -2.11758237e-22 -2.11758237e-22
      -2.11758237e-22 -2.11758237e-22 3.18976126e-05 -2.11758237e-22
      -2.11758237e-22 -2.11758237e-22 -2.11758237e-22 -1.14237970e-04
      -2.43752307e-04 -2.02707131e-04 -1.32589339e-04 -3.86432162e-04
      -3.20240448e-04 -1.25406950e-04 -2.67369294e-04 -2.11758237e-22
      -2.11758237e-22 -2.11758237e-22 -2.11758237e-22 -2.11758237e-22
      6.84931074e-05 1.48150109e-04 1.48150109e-04 1.48150109e-04
      1.48150109e-04 1.48150109e-04 7.96570093e-05 -2.11758237e-22
      7.96570093e-05 -2.11758237e-22 -2.11758237e-22 -2.11758237e-22
      -2.11758237e-22 -2.11758237e-22 -2.11758237e-22 -2.11758237e-22
      -2.11758237e-22 -2.11758237e-22 -2.11758237e-22 -2.11758237e-22
      -2.11758237e-22 -2.11758237e-22 -2.11758237e-22 -2.11758237e-22
      -2.11758237e-22 -2.11758237e-22 -2.11758237e-22 -2.11758237e-22
      -2.11758237e-22 -2.11758237e-22 -2.11758237e-22 -2.11758237e-22
      3.18976126e-05 -2.11758237e-22 -2.11758237e-22 -2.11758237e-22
      -2.11758237e-22 6.84931074e-05 -6.43268213e-05 -2.53191858e-04
      -1.30307599e-04 -1.87790083e-05 -2.06002485e-04 -2.71477358e-04
      -5.62249406e-05 2.27269538e-06 1.20700061e-04 -2.11758237e-22
      -2.11758237e-22 -2.11758237e-22 -2.11758237e-22 -2.11758237e-22
      1.23175032e-05 1.23175032e-05 1.23175032e-05 8.08106051e-05
      1.60467622e-04 1.60467622e-04 -2.11758237e-22 1.23175032e-05
      -2.11758237e-22 -2.11758237e-22 -2.11758237e-22 -2.11758237e-22
      -2.11758237e-22 -2.11758237e-22 -2.11758237e-22 -2.11758237e-22
      -2.11758237e-22 -2.11758237e-22 -2.11758237e-22 -2.11758237e-22
      -2.11758237e-22 -2.11758237e-22 -2.11758237e-22 -2.11758237e-22
      -2.11758237e-22 -2.11758237e-22 -2.11758237e-22 -2.11758237e-22
      -2.11758237e-22 -2.11758237e-22 -2.11758237e-22 3.18976126e-05
      -2.11758237e-22 -2.11758237e-22 6.84931074e-05 -2.11758237e-22
      -1.36165239e-04 -3.13620229e-04 -2.14790271e-04 -8.05519958e-05
      -3.22262204e-05 -1.10018584e-04 -5.62249406e-05 1.39028794e-04
      1.20700061e-04 -2.11758237e-22 -2.11758237e-22 6.84931074e-05
      7.96570093e-05 7.62820418e-05 7.62820418e-05 7.62820418e-05
      7.62820418e-05 7.62820418e-05 -2.11758237e-22 4.30595319e-05
      1.23175032e-05 -2.11758237e-22 -2.11758237e-22 -2.11758237e-22
      -2.11758237e-22 -2.11758237e-22 -2.11758237e-22 -2.11758237e-22
      -2.11758237e-22 -2.11758237e-22 -2.11758237e-22 -2.11758237e-22
      -2.11758237e-22 -2.11758237e-22 -2.11758237e-22 -2.11758237e-22
      -2.11758237e-22 -2.11758237e-22 -2.11758237e-22 -2.11758237e-22
      -2.11758237e-22 -2.11758237e-22 -2.11758237e-22 -2.11758237e-22
      -2.11758237e-22 3.18976126e-05 3.18976126e-05 7.31254404e-05
      8.54429454e-05 8.85995469e-05 -3.49492657e-05 -3.21684958e-04
      -2.14790271e-04 1.57819028e-04 9.06538262e-05 -2.59159831e-04
      -2.21612463e-05 1.36435003e-04 -2.11758237e-22 -2.11758237e-22
      -2.11758237e-22 -2.11758237e-22 -2.11758237e-22 1.23175032e-05
      -2.11758237e-22 -2.11758237e-22 -2.11758237e-22 7.62820418e-05
      7.74376240e-05 7.62820418e-05 -2.11758237e-22 -2.11758237e-22
      -2.11758237e-22 -2.11758237e-22 -2.11758237e-22 -2.11758237e-22
      -2.11758237e-22 -2.11758237e-22 -2.11758237e-22 -2.11758237e-22
      -2.11758237e-22 -2.11758237e-22 -2.11758237e-22 -2.11758237e-22
      -2.11758237e-22 -2.11758237e-22 -2.11758237e-22 -2.11758237e-22
      -2.11758237e-22 -2.11758237e-22 -2.11758237e-22 -2.11758237e-22
      -2.11758237e-22 7.96570093e-05 7.96570093e-05 2.27269538e-06
      4.64878140e-05 1.36270362e-04 1.61724980e-04 7.31254404e-05
      9.66259540e-05 -3.78515571e-04 -1.62007811e-04 -4.54708716e-05
      4.47896164e-05 -1.90339924e-04 6.70162408e-05 1.83287411e-05
      2.27269538e-06 1.67701837e-05 1.54665231e-05 1.11382520e-04
      -2.11758237e-22 -2.11758237e-22 -2.11758237e-22 -2.11758237e-22
      -2.11758237e-22 3.07420269e-05 -2.11758237e-22 -2.11758237e-22
      -2.11758237e-22 -2.11758237e-22 -2.11758237e-22 -2.11758237e-22
      -2.11758237e-22 -2.11758237e-22 -2.11758237e-22 -2.11758237e-22
      -2.11758237e-22 -2.11758237e-22 -2.11758237e-22 -2.11758237e-22
      -2.11758237e-22 -2.11758237e-22 -2.11758237e-22 -2.11758237e-22
      -2.11758237e-22 -2.11758237e-22 -2.11758237e-22 -2.11758237e-22
      -2.11758237e-22 -2.11758237e-22 7.96570093e-05 7.96570093e-05
      1.11382520e-04 1.23700025e-04 9.08722359e-05 1.95874250e-04
      4.99435155e-05 3.83896404e-05 -4.61110067e-05 -3.06817528e-04
      -3.36088997e-04 -5.50208351e-05 -1.68883504e-04 -7.97861430e-05
      -6.78696961e-05 3.51004783e-05 6.50644870e-05 5.05670032e-05
      3.51004783e-05 -2.11758237e-22 -2.11758237e-22 -2.11758237e-22
      -2.11758237e-22 -2.11758237e-22 3.07420269e-05 1.15558532e-06
      -2.11758237e-22 -2.11758237e-22 -2.11758237e-22 -2.11758237e-22
      -2.11758237e-22 -2.11758237e-22 -2.11758237e-22 -2.11758237e-22
      -2.11758237e-22 -2.11758237e-22 -2.11758237e-22 -2.11758237e-22
      -2.11758237e-22 -2.11758237e-22 -2.11758237e-22 -2.11758237e-22
      -2.11758237e-22 -2.11758237e-22 -2.11758237e-22 -2.11758237e-22
      -2.11758237e-22 7.96570093e-05 7.96570093e-05 7.96570093e-05
      -2.11758237e-22 7.62820418e-05 8.85995469e-05 -2.11758237e-22
      3.51004783e-05 -2.11758237e-22 4.88264050e-05 2.65847979e-04
      -8.61756344e-05 -1.03361541e-04 -1.83242970e-04 2.17171706e-04
      -2.13144129e-04 -1.20271819e-04 -6.46991703e-06 6.87994543e-05
      6.65267580e-05 1.31938286e-05 -2.11758237e-22 -2.11758237e-22
      -2.11758237e-22 -2.11758237e-22 -2.11758237e-22 3.18976126e-05
      3.18976126e-05 -2.11758237e-22 -2.11758237e-22 -2.11758237e-22
      -2.11758237e-22 -2.11758237e-22 -2.11758237e-22 -2.11758237e-22
      -2.11758237e-22 -2.11758237e-22 -2.11758237e-22 -2.11758237e-22
      -2.11758237e-22 -2.11758237e-22 -2.11758237e-22 -2.11758237e-22
      -2.11758237e-22 -2.11758237e-22 -2.11758237e-22 -2.11758237e-22
      -2.11758237e-22 -2.11758237e-22 -2.11758237e-22 -2.11758237e-22
      7.96570093e-05 7.62820418e-05 7.62820418e-05 7.62820418e-05
      -2.11758237e-22 -2.11758237e-22 3.15225698e-05 4.95979657e-05
      9.89087421e-05 1.51676213e-04 7.16674767e-05 -1.89781465e-04
      -2.63348484e-04 2.34357896e-04 -2.98908155e-04 -1.12274240e-04
      5.31951955e-05 2.27269538e-06 1.69287923e-05 9.00542291e-05
      -2.11758237e-22 -2.11758237e-22 3.07420269e-05 3.07420269e-05
      3.18976126e-05 1.15558532e-06 -2.11758237e-22 -2.11758237e-22
      -2.11758237e-22 -2.11758237e-22 -2.11758237e-22 -2.11758237e-22
      -2.11758237e-22 -2.11758237e-22 -2.11758237e-22 -2.11758237e-22
      -2.11758237e-22 -2.11758237e-22 -2.11758237e-22 -2.11758237e-22
      -2.11758237e-22 -2.11758237e-22 -2.11758237e-22 -2.11758237e-22
      -2.11758237e-22 -2.11758237e-22 -2.11758237e-22 -2.11758237e-22
      -2.11758237e-22 7.62820418e-05 7.62820418e-05 7.62820418e-05
      -2.11758237e-22 -2.11758237e-22 -2.11758237e-22 -2.11758237e-22
      6.84931074e-05 5.44456852e-05 6.76395139e-05 2.08698657e-05
      3.79099511e-05 -1.07011074e-05 -1.24403887e-04 1.95629065e-04
      -3.31063464e-04 -2.97192193e-04 5.87586073e-05 7.31254404e-05
      7.31254404e-05 3.07420269e-05 3.18976126e-05 3.18976126e-05
      3.18976126e-05 1.15558532e-06 -2.11758237e-22 -2.11758237e-22
      -2.11758237e-22 -2.11758237e-22 -2.11758237e-22 -2.11758237e-22
      -2.11758237e-22 -2.11758237e-22 -2.11758237e-22 -2.11758237e-22
      -2.11758237e-22 -2.11758237e-22 -2.11758237e-22 -2.11758237e-22
      -2.11758237e-22 -2.11758237e-22 -2.11758237e-22 -2.11758237e-22
      -2.11758237e-22 -2.11758237e-22 -2.11758237e-22 -2.11758237e-22
      -2.11758237e-22 -2.11758237e-22 -2.11758237e-22 -2.11758237e-22
      -2.11758237e-22 -2.11758237e-22 -2.11758237e-22 9.19745144e-05
      -2.11758237e-22 6.84931074e-05 3.61169441e-05 4.93107727e-05
      1.31938286e-05 -2.11758237e-22 -1.23548816e-04 -3.30147421e-04
      -1.90487975e-04 -3.31347866e-04 -3.82439059e-04 -3.92791000e-04
      -1.35096838e-04 6.80145604e-05 1.05023057e-04 -8.83058819e-05
      -8.83058819e-05 -2.11758237e-22 -2.11758237e-22 -2.11758237e-22
      -2.11758237e-22 -2.11758237e-22 -2.11758237e-22 -2.11758237e-22
      -2.11758237e-22 -2.11758237e-22 -2.11758237e-22 -2.11758237e-22
      -2.11758237e-22 -2.11758237e-22 -2.11758237e-22 -2.11758237e-22
      -2.11758237e-22 -2.11758237e-22 -2.11758237e-22 -2.11758237e-22
      -2.11758237e-22 -2.11758237e-22 -2.11758237e-22 -2.11758237e-22
      -2.11758237e-22 -2.11758237e-22 -2.11758237e-22 1.23175032e-05
      -2.11758237e-22 -2.11758237e-22 -2.11758237e-22 -2.11758237e-22
      -2.11758237e-22 1.23175032e-05 6.84931074e-05 -2.11758237e-22
      -1.75027410e-04 -2.11758237e-22 7.96570093e-05 7.96570093e-05
      1.20700061e-04 -4.38231044e-04 -3.34290002e-04 -5.21835813e-04
      -3.99155397e-04 -2.80055829e-04 -1.79311945e-04 -1.20502424e-04
      -2.02478783e-04 -3.14036792e-04 -1.36165239e-04 -2.11758237e-22
      -2.11758237e-22 -2.11758237e-22 -2.11758237e-22 -2.11758237e-22
      -2.11758237e-22 -2.11758237e-22 -2.11758237e-22 -2.11758237e-22
      -2.11758237e-22 -2.11758237e-22 -2.11758237e-22 -2.11758237e-22
      -2.11758237e-22 -2.11758237e-22 -2.11758237e-22 -2.11758237e-22
      -2.11758237e-22 -2.11758237e-22 -2.11758237e-22 -2.11758237e-22
      -2.11758237e-22 -2.11758237e-22 -2.11758237e-22 -2.11758237e-22
      -2.11758237e-22 -2.11758237e-22 1.23175032e-05 1.23175032e-05
      1.23175032e-05 1.23175032e-05 1.23175032e-05 -2.11758237e-22
      7.96570093e-05 2.34320705e-05 -2.20206945e-04 -2.58314074e-04
      -1.07872957e-05 -9.04443077e-05 -2.17271037e-04 -3.06850037e-04
      -7.76202127e-04 -9.57807002e-04 -8.61309760e-04 -6.86017796e-04
      -6.16396661e-04 -2.89102842e-04 -1.95644549e-04 -5.68306168e-05
      -2.11758237e-22 -2.11758237e-22 -2.11758237e-22 -2.11758237e-22
      -2.11758237e-22 -2.11758237e-22 -2.11758237e-22 -2.11758237e-22
      -2.11758237e-22 -2.11758237e-22 -2.11758237e-22 -2.11758237e-22
      -2.11758237e-22 -2.11758237e-22 -2.11758237e-22 -2.11758237e-22
      -2.11758237e-22 -2.11758237e-22 -2.11758237e-22 -2.11758237e-22
      -2.11758237e-22 -2.11758237e-22 -2.11758237e-22 -2.11758237e-22
      -2.11758237e-22 -2.11758237e-22 -2.11758237e-22 -2.11758237e-22
      -2.11758237e-22 -2.11758237e-22 6.84931074e-05 -2.11758237e-22
      -2.11758237e-22 6.84931074e-05 6.84931074e-05 3.61169441e-05
      -1.49110012e-04 -1.89910512e-04 -3.16737249e-04 -3.16737249e-04
      -3.16737249e-04 -3.16737249e-04 -3.34194308e-04 -5.55856561e-04
      -4.57067305e-04 -2.14417654e-04 -3.33214557e-04 -1.50483465e-04
      -1.39319556e-04 -8.80150401e-05 3.61169441e-05 3.61169441e-05
      -2.11758237e-22 -2.11758237e-22 -2.11758237e-22 -2.11758237e-22
      -2.11758237e-22 -2.11758237e-22 -2.11758237e-22 -2.11758237e-22
      -2.11758237e-22 -2.11758237e-22 -2.11758237e-22 -2.11758237e-22
      -2.11758237e-22 -2.11758237e-22 -2.11758237e-22 -2.11758237e-22
      -2.11758237e-22 -2.11758237e-22 -2.11758237e-22 -2.11758237e-22
      -2.11758237e-22 -2.11758237e-22 -2.11758237e-22 -2.11758237e-22
      -2.11758237e-22 -2.11758237e-22 -2.11758237e-22 6.84931074e-05
      6.84931074e-05 6.84931074e-05 6.84931074e-05 6.84931074e-05
      -6.03329827e-05 -2.42160368e-05 -6.03329827e-05 -1.54933179e-04
      -2.28247445e-04 -2.28247445e-04 -2.28247445e-04 -2.28247445e-04
      -2.65964307e-04 -3.51105817e-04 -2.85376969e-04 -1.29711916e-04
      -1.60486525e-05 -8.33881568e-05 -9.57056618e-05 -8.33881568e-05
      -9.57056618e-05 -9.57056618e-05 -2.11758237e-22 -2.11758237e-22
      -2.11758237e-22 -2.11758237e-22 -2.11758237e-22 -2.11758237e-22
      -2.11758237e-22 -2.11758237e-22 -2.11758237e-22 -2.11758237e-22
      -2.11758237e-22 -2.11758237e-22 -2.11758237e-22 -2.11758237e-22
      -2.11758237e-22 -2.11758237e-22 -2.11758237e-22 -2.11758237e-22
      -2.11758237e-22 -2.11758237e-22 -2.11758237e-22 -2.11758237e-22
      -2.11758237e-22 -2.11758237e-22 -2.11758237e-22 -2.11758237e-22
      -2.11758237e-22 -2.11758237e-22 -2.11758237e-22 -2.11758237e-22
      -2.11758237e-22 -2.11758237e-22 3.61169441e-05 3.61169441e-05
      -2.11758237e-22 -2.11758237e-22 -2.19873240e-04 -2.19873240e-04
      -2.19873240e-04 -2.19873240e-04 -2.19873240e-04 -1.82156364e-04
      -1.82156364e-04 3.05371723e-05 6.84931074e-05 1.68256549e-04
      -2.11758237e-22 -2.11758237e-22 -2.11758237e-22 -2.11758237e-22
      -2.11758237e-22 -2.11758237e-22 -2.11758237e-22 -2.11758237e-22
      -2.11758237e-22 -2.11758237e-22 -2.11758237e-22 -2.11758237e-22
      -2.11758237e-22 -2.11758237e-22 -2.11758237e-22 -2.11758237e-22
      -2.11758237e-22 -2.11758237e-22 -2.11758237e-22 -2.11758237e-22
      -2.11758237e-22 -2.11758237e-22 -2.11758237e-22 -2.11758237e-22
      -2.11758237e-22 -2.11758237e-22 -2.11758237e-22 -2.11758237e-22
      -2.11758237e-22 -2.11758237e-22 -2.11758237e-22 -2.11758237e-22
      -2.11758237e-22 -2.11758237e-22 -2.11758237e-22 -2.11758237e-22
      3.61169441e-05 -2.11758237e-22 -2.11758237e-22 -2.11758237e-22
      -2.11758237e-22 -2.11758237e-22 -1.14237970e-04 -2.11758237e-22
      -2.11758237e-22 -2.11758237e-22 -2.11758237e-22 7.62820418e-05
      -2.11758237e-22 -2.11758237e-22 1.23175032e-05 -2.11758237e-22
      -2.11758237e-22 -2.11758237e-22 -2.11758237e-22 -2.11758237e-22
      -2.11758237e-22 -2.11758237e-22 -2.11758237e-22 -2.11758237e-22
      -2.11758237e-22 -2.11758237e-22 -2.11758237e-22 -2.11758237e-22
      -2.11758237e-22 -2.11758237e-22 -2.11758237e-22 -2.11758237e-22
      -2.11758237e-22 -2.11758237e-22 -2.11758237e-22 -2.11758237e-22
      -2.11758237e-22 -2.11758237e-22 -2.11758237e-22 -2.11758237e-22
      -2.11758237e-22 -2.11758237e-22 -2.11758237e-22 -2.11758237e-22
      -2.11758237e-22 -2.11758237e-22 -2.11758237e-22 -2.11758237e-22
      -2.11758237e-22 -2.11758237e-22 -2.11758237e-22 -2.11758237e-22
      -2.11758237e-22 -2.11758237e-22 -2.11758237e-22 -2.11758237e-22
      -2.11758237e-22 -2.11758237e-22 -2.11758237e-22 -2.11758237e-22
      -2.11758237e-22 7.62820418e-05 7.62820418e-05 -2.11758237e-22
      -2.11758237e-22 -2.11758237e-22 -2.11758237e-22 -2.11758237e-22
      -2.11758237e-22 -2.11758237e-22 -2.11758237e-22 -2.11758237e-22
      -2.11758237e-22 -2.11758237e-22 -2.11758237e-22 -2.11758237e-22
      -2.11758237e-22 -2.11758237e-22 -2.11758237e-22 -2.11758237e-22
      -2.11758237e-22 -2.11758237e-22 -2.11758237e-22 -2.11758237e-22
      -2.11758237e-22 -2.11758237e-22 -2.11758237e-22 -2.11758237e-22
      -2.11758237e-22 -2.11758237e-22 -2.11758237e-22 -2.11758237e-22
      -2.11758237e-22 -2.11758237e-22 -2.11758237e-22 -2.11758237e-22
      -2.11758237e-22 -2.11758237e-22 -2.11758237e-22 -2.11758237e-22
      3.61169441e-05 -2.11758237e-22 -2.11758237e-22 -2.11758237e-22
      -2.11758237e-22 -2.11758237e-22 -2.11758237e-22 -2.11758237e-22
      -2.11758237e-22 -2.11758237e-22 -2.11758237e-22 -2.11758237e-22
      -2.11758237e-22 -2.11758237e-22 -2.11758237e-22 -2.11758237e-22
      -2.11758237e-22 -2.11758237e-22 -2.11758237e-22 -2.11758237e-22
      -2.11758237e-22 -2.11758237e-22 -2.11758237e-22 -2.11758237e-22
      -2.11758237e-22 -2.11758237e-22 -2.11758237e-22 -2.11758237e-22
      -2.11758237e-22 -2.11758237e-22 -2.11758237e-22 -2.11758237e-22
      -2.11758237e-22 -2.11758237e-22 -2.11758237e-22 -2.11758237e-22
      -2.11758237e-22 -2.11758237e-22 -2.11758237e-22 -2.11758237e-22
      -2.11758237e-22 -2.11758237e-22 -2.11758237e-22 -2.11758237e-22
      -2.11758237e-22 -2.11758237e-22 -2.11758237e-22 -2.11758237e-22
      -2.11758237e-22 -2.11758237e-22 -2.11758237e-22 -2.11758237e-22
      -2.11758237e-22 -2.11758237e-22 -2.11758237e-22 -2.11758237e-22
      -2.11758237e-22 -2.11758237e-22 -2.11758237e-22 -2.11758237e-22
      -2.11758237e-22 -2.11758237e-22 -2.11758237e-22 -2.11758237e-22
      -2.11758237e-22 -2.11758237e-22 -2.11758237e-22 -2.11758237e-22
      -2.11758237e-22 -2.11758237e-22 -2.11758237e-22 -2.11758237e-22
      -2.11758237e-22 -2.11758237e-22 -2.11758237e-22 -2.11758237e-22
      -2.11758237e-22 -2.11758237e-22 -2.11758237e-22 -2.11758237e-22
      -2.11758237e-22 -2.11758237e-22 -2.11758237e-22 -2.11758237e-22
      -2.11758237e-22 -2.11758237e-22 -2.11758237e-22 -2.11758237e-22
      -2.11758237e-22 -2.11758237e-22 -2.11758237e-22 -2.11758237e-22
      -2.11758237e-22 -2.11758237e-22 -2.11758237e-22 -2.11758237e-22
      -2.11758237e-22 -2.11758237e-22 -2.11758237e-22 -2.11758237e-22
      -2.11758237e-22 -2.11758237e-22 -2.11758237e-22 -2.11758237e-22
      -2.11758237e-22 -2.11758237e-22 -2.11758237e-22 -2.11758237e-22
      -2.11758237e-22 -2.11758237e-22 -2.11758237e-22 -2.11758237e-22
      -2.11758237e-22 -2.11758237e-22 -2.11758237e-22 -2.11758237e-22
      -2.11758237e-22 -2.11758237e-22 -2.11758237e-22 -2.11758237e-22
      -2.11758237e-22 -2.11758237e-22 -2.11758237e-22 -2.11758237e-22
      -2.11758237e-22 -2.11758237e-22 -2.11758237e-22 -2.11758237e-22
      -2.11758237e-22 -2.11758237e-22 -2.11758237e-22 -2.11758237e-22
      -2.11758237e-22 -2.11758237e-22 -2.11758237e-22 -2.11758237e-22
      -2.11758237e-22 -2.11758237e-22 -2.11758237e-22 -2.11758237e-22
      -2.11758237e-22 -2.11758237e-22 -2.11758237e-22 -2.11758237e-22
      -2.11758237e-22 -2.11758237e-22 -2.11758237e-22 -2.11758237e-22
      -2.11758237e-22 -2.11758237e-22 -2.11758237e-22 -2.11758237e-22
      -2.11758237e-22 -2.11758237e-22 -2.11758237e-22 -2.11758237e-22
      -2.11758237e-22 -2.11758237e-22 -2.11758237e-22 -2.11758237e-22
      -2.11758237e-22 -2.11758237e-22 -2.11758237e-22 -2.11758237e-22
      -2.11758237e-22 -2.11758237e-22 -2.11758237e-22 -2.11758237e-22
      -2.11758237e-22 -2.11758237e-22 -2.11758237e-22 -2.11758237e-22
      -2.11758237e-22 -2.11758237e-22 -2.11758237e-22 -2.11758237e-22
      -2.11758237e-22 -2.11758237e-22 -2.11758237e-22 -2.11758237e-22
      -2.11758237e-22 -2.11758237e-22 -2.11758237e-22 -2.11758237e-22
      -2.11758237e-22 -2.11758237e-22 -2.11758237e-22 -2.11758237e-22
      -2.11758237e-22 -2.11758237e-22 -2.11758237e-22 -2.11758237e-22
      -2.11758237e-22 -2.11758237e-22 -2.11758237e-22 -2.11758237e-22
      -2.11758237e-22 -2.11758237e-22 -2.11758237e-22 -2.11758237e-22
      -2.11758237e-22 -2.11758237e-22 -2.11758237e-22 -2.11758237e-22
      -2.11758237e-22 -2.11758237e-22 -2.11758237e-22 -2.11758237e-22
      -2.11758237e-22 -2.11758237e-22 -2.11758237e-22 -2.11758237e-22
      -2.11758237e-22 -2.11758237e-22 -2.11758237e-22 -2.11758237e-22
      -2.11758237e-22 -2.11758237e-22 -2.11758237e-22 -2.11758237e-22
      -2.11758237e-22 -2.11758237e-22 -2.11758237e-22 -2.11758237e-22
      -2.11758237e-22 -2.11758237e-22 -2.11758237e-22 -2.11758237e-22
      -2.11758237e-22 -2.11758237e-22 -2.11758237e-22 -2.11758237e-22
      -2.11758237e-22 -2.11758237e-22 -2.11758237e-22 -2.11758237e-22
      -2.11758237e-22 -2.11758237e-22 -2.11758237e-22 -2.11758237e-22
      -2.11758237e-22 -2.11758237e-22 -2.11758237e-22 -2.11758237e-22
      -2.11758237e-22 -2.11758237e-22 -2.11758237e-22 -2.11758237e-22
      -2.11758237e-22 -2.11758237e-22 -2.11758237e-22 -2.11758237e-22
      -2.11758237e-22 -2.11758237e-22 -2.11758237e-22 -2.11758237e-22
      -2.11758237e-22 -2.11758237e-22 -2.11758237e-22 -2.11758237e-22
      -2.11758237e-22 -2.11758237e-22 -2.11758237e-22 -2.11758237e-22
      -2.11758237e-22 -2.11758237e-22 -2.11758237e-22 -2.11758237e-22
      -2.11758237e-22 -2.11758237e-22 -2.11758237e-22 -2.11758237e-22
      -2.11758237e-22 -2.11758237e-22 -2.11758237e-22 -2.11758237e-22
      -2.11758237e-22 -2.11758237e-22 -2.11758237e-22 -2.11758237e-22
      -2.11758237e-22 -2.11758237e-22 -2.11758237e-22 -2.11758237e-22
      -2.11758237e-22 -2.11758237e-22 -2.11758237e-22 -2.11758237e-22
      -2.11758237e-22 -2.11758237e-22 -2.11758237e-22 -2.11758237e-22
      -2.11758237e-22 -2.11758237e-22 -2.11758237e-22 -2.11758237e-22
      -2.11758237e-22 -2.11758237e-22 -2.11758237e-22 -2.11758237e-22
      -2.11758237e-22 -2.11758237e-22 -2.11758237e-22 -2.11758237e-22
      -2.11758237e-22 -2.11758237e-22 -2.11758237e-22 -2.11758237e-22
      -2.11758237e-22 -2.11758237e-22 -2.11758237e-22 -2.11758237e-22
      -2.11758237e-22 -2.11758237e-22 -2.11758237e-22 -2.11758237e-22
      -2.11758237e-22 -2.11758237e-22 -2.11758237e-22 -2.11758237e-22
      -2.11758237e-22 -2.11758237e-22 -2.11758237e-22 -2.11758237e-22
      -2.11758237e-22 -2.11758237e-22 -2.11758237e-22 -2.11758237e-22
      -2.11758237e-22 -2.11758237e-22 -2.11758237e-22 -2.11758237e-22
      -2.11758237e-22 -2.11758237e-22 -2.11758237e-22 -2.11758237e-22
      -2.11758237e-22 -2.11758237e-22 -2.11758237e-22 -2.11758237e-22
      -2.11758237e-22 -2.11758237e-22 -2.11758237e-22 -2.11758237e-22
      -2.11758237e-22 -2.11758237e-22 -2.11758237e-22 -2.11758237e-22
      -2.11758237e-22 -2.11758237e-22 -2.11758237e-22 -2.11758237e-22
      -2.11758237e-22 -2.11758237e-22 -2.11758237e-22 -2.11758237e-22
      -2.11758237e-22 -2.11758237e-22 -2.11758237e-22 -2.11758237e-22
      -2.11758237e-22 -2.11758237e-22 -2.11758237e-22 -2.11758237e-22
      -2.11758237e-22 -2.11758237e-22 -2.11758237e-22 -2.11758237e-22
      -2.11758237e-22 -2.11758237e-22 -2.11758237e-22 -2.11758237e-22
      -2.11758237e-22 -2.11758237e-22 -2.11758237e-22 -2.11758237e-22
      -2.11758237e-22 -2.11758237e-22 -2.11758237e-22 -2.11758237e-22
      -2.11758237e-22 -2.11758237e-22 -2.11758237e-22 -2.11758237e-22
      -2.11758237e-22 -2.11758237e-22 -2.11758237e-22 -2.11758237e-22
      -2.11758237e-22 -2.11758237e-22 -2.11758237e-22 -2.11758237e-22
      -2.11758237e-22 -2.11758237e-22 -2.11758237e-22 -2.11758237e-22
      -2.11758237e-22 -2.11758237e-22 -2.11758237e-22 -2.11758237e-22
      -2.11758237e-22 -2.11758237e-22 -2.11758237e-22 -2.11758237e-22
      -2.11758237e-22 -2.11758237e-22 -2.11758237e-22 -2.11758237e-22
      -2.11758237e-22 -2.11758237e-22 -2.11758237e-22 -2.11758237e-22
      -2.11758237e-22 -2.11758237e-22 -2.11758237e-22 -2.11758237e-22
      -2.11758237e-22 -2.11758237e-22 -2.11758237e-22 -2.11758237e-22
      -2.11758237e-22 -2.11758237e-22 -2.11758237e-22 -2.11758237e-22
      -2.11758237e-22 -2.11758237e-22 -2.11758237e-22 -2.11758237e-22
      -2.11758237e-22 -2.11758237e-22 -2.11758237e-22 -2.11758237e-22
      -2.11758237e-22 -2.11758237e-22 -2.11758237e-22 -2.11758237e-22
      -2.11758237e-22 -2.11758237e-22 -2.11758237e-22 -2.11758237e-22
      -2.11758237e-22 -2.11758237e-22 -2.11758237e-22 -2.11758237e-22
      -2.11758237e-22 -2.11758237e-22 -2.11758237e-22 -2.11758237e-22
      -2.11758237e-22 -2.11758237e-22 -2.11758237e-22 -2.11758237e-22
      -2.11758237e-22 -2.11758237e-22 -2.11758237e-22 -2.11758237e-22
      -2.11758237e-22 -2.11758237e-22 -2.11758237e-22 -2.11758237e-22
      -2.11758237e-22 -2.11758237e-22 -2.11758237e-22 -2.11758237e-22
      -2.11758237e-22 -2.11758237e-22 -2.11758237e-22 -2.11758237e-22
      -2.11758237e-22 -2.11758237e-22 -2.11758237e-22 -2.11758237e-22
      -2.11758237e-22 -2.11758237e-22 -2.11758237e-22 -2.11758237e-22
      -2.11758237e-22 -2.11758237e-22 -2.11758237e-22 -2.11758237e-22
      -2.11758237e-22 -2.11758237e-22 -2.11758237e-22 -2.11758237e-22
      -2.11758237e-22 -2.11758237e-22 -2.11758237e-22 -2.11758237e-22
      -2.11758237e-22 -2.11758237e-22 -2.11758237e-22 -2.11758237e-22
      -2.11758237e-22 -2.11758237e-22 -2.11758237e-22 -2.11758237e-22
      -2.11758237e-22 -2.11758237e-22 -2.11758237e-22 -2.11758237e-22
      -2.11758237e-22 -2.11758237e-22 -2.11758237e-22 -2.11758237e-22
      -2.11758237e-22 -2.11758237e-22 -2.11758237e-22 -2.11758237e-22
      -2.11758237e-22 -2.11758237e-22 -2.11758237e-22 -2.11758237e-22
      -2.11758237e-22 -2.11758237e-22 -2.11758237e-22 -2.11758237e-22
      -2.11758237e-22 -2.11758237e-22 -2.11758237e-22 -2.11758237e-22
      -2.11758237e-22 -2.11758237e-22 -2.11758237e-22 -2.11758237e-22
      -2.11758237e-22 -2.11758237e-22 -2.11758237e-22 -2.11758237e-22
      -2.11758237e-22 -2.11758237e-22 -2.11758237e-22 -2.11758237e-22
      -2.11758237e-22 -2.11758237e-22 -2.11758237e-22 -2.11758237e-22
      -2.11758237e-22 -2.11758237e-22 -2.11758237e-22 -2.11758237e-22
      -2.11758237e-22 -2.11758237e-22 -2.11758237e-22 -2.11758237e-22
      -2.11758237e-22 -2.11758237e-22 -2.11758237e-22 -2.11758237e-22
      -2.11758237e-22 -2.11758237e-22 -2.11758237e-22 -2.11758237e-22
      -2.11758237e-22 -2.11758237e-22 -2.11758237e-22 -2.11758237e-22
      -2.11758237e-22 -2.11758237e-22 -2.11758237e-22 -2.11758237e-22
      -2.11758237e-22 -2.11758237e-22 -2.11758237e-22 -2.11758237e-22
      -2.11758237e-22 -2.11758237e-22 -2.11758237e-22 -2.11758237e-22
      -2.11758237e-22 -2.11758237e-22 -2.11758237e-22 -2.11758237e-22
      -2.11758237e-22 -2.11758237e-22 -2.11758237e-22 -2.11758237e-22
      -2.11758237e-22 -2.11758237e-22 -2.11758237e-22 -2.11758237e-22
      -2.11758237e-22 -2.11758237e-22 -2.11758237e-22 -2.11758237e-22
      -2.11758237e-22 -2.11758237e-22 -2.11758237e-22 -2.11758237e-22
      -2.11758237e-22 -2.11758237e-22 -2.11758237e-22 -2.11758237e-22
      -2.11758237e-22 -2.11758237e-22 -2.11758237e-22 -2.11758237e-22
      -2.11758237e-22 -2.11758237e-22 -2.11758237e-22 -2.11758237e-22
      -2.11758237e-22 -2.11758237e-22 -2.11758237e-22 -2.11758237e-22
      -2.11758237e-22 -2.11758237e-22 -2.11758237e-22 -2.11758237e-22
      -2.11758237e-22 -2.11758237e-22 -2.11758237e-22 -2.11758237e-22
      -2.11758237e-22 -2.11758237e-22 -2.11758237e-22 -2.11758237e-22
      -2.11758237e-22 -2.11758237e-22 -2.11758237e-22 -2.11758237e-22
      -2.11758237e-22 -2.11758237e-22 -2.11758237e-22 -2.11758237e-22
      -2.11758237e-22 -2.11758237e-22 -2.11758237e-22 -2.11758237e-22
      -2.11758237e-22 -2.11758237e-22 -2.11758237e-22 -2.11758237e-22
      -2.11758237e-22 -2.11758237e-22 -2.11758237e-22 -2.11758237e-22
      -2.11758237e-22 -2.11758237e-22 -2.11758237e-22 -2.11758237e-22
      -2.11758237e-22 -2.11758237e-22 -2.11758237e-22 -2.11758237e-22
      -2.11758237e-22 -2.11758237e-22 -2.11758237e-22 -2.11758237e-22
      -2.11758237e-22 -2.11758237e-22 -2.11758237e-22 -2.11758237e-22
      -2.11758237e-22 -2.11758237e-22 -2.11758237e-22 -2.11758237e-22
      -2.11758237e-22 -2.11758237e-22 -2.11758237e-22 -2.11758237e-22
      -2.11758237e-22 -2.11758237e-22 -2.11758237e-22 -2.11758237e-22
      -2.11758237e-22 -2.11758237e-22 -2.11758237e-22 -2.11758237e-22
      -2.11758237e-22 -2.11758237e-22 -2.11758237e-22 -2.11758237e-22
      -2.11758237e-22 -2.11758237e-22 -2.11758237e-22 -2.11758237e-22
      -2.11758237e-22 -2.11758237e-22 -2.11758237e-22 -2.11758237e-22
      -2.11758237e-22 -2.11758237e-22 -2.11758237e-22 -2.11758237e-22</_></support_vectors>
  <uncompressed_sv_total>40</uncompressed_sv_total>
  <uncompressed_support_vectors>
    <_>
      1. 1. 1. 1. 1. 1. 1. 1. 1. 1. 1. 1. 1. 1. 1. 1. 1. 1. 1. 1. 1. 1.
      1. 1. 1. 1. 1. 1. 1. 1. 1. 1. 1. 1. 1. 1. 1. 1. 1. 1. 1. 1. 1. 1.
      1. 1. 1. 1. 1. 1. 1. 1. 1. 1. 1. 1. 1. 1. 1. 1. 1. 1. 1. 1. 1. 1.
      1. 1. 1. 1. 1. 1. 1. 1. 1. 1. 1. 1. 1. 1. 1. 1. 1. 1. 1. 1. 1. 1.
      1. 1. 1. 1. 1. 1. 1. 1. 1. 1. 1. 1. 1. 1. 1. 1. 1. 1. 1. 1. 1. 1.
      1. 1. 1. 1. 1. 1. 1. 1. 1. 1. 1. 1. 1. 1. 1. 1. 1. 1. 1. 1. 1. 1.
      1. 1. 1. 1. 1. 1. 1. 1. 1. 1. 1. 1. 1. 1. 1. 1. 1. 1. 1. 1. 1. 1.
      1. 1. 1. 1. 1. 1. 1. 1. 1. 1. 1. 1. 1. 1. 1. 1. 1. 1. 1. 1. 1. 1.
      1. 1. 1. 1. 1. 1. 1. 1. 1. 1. 1. 1. 1. 1. 1. 1. 1. 1. 1. 1. 1. 1.
      1. 1. 1. 1. 1. 1. 1. 1. 1. 1. 1. 1. 1. 1. 1. 1. 1. 1. 1. 1. 1. 1.
      1. 1. 1. 1. 1. 1. 1. 1. 1. 1. 1. 1. 1. 1. 1. 1. 1. 1. 1. 1. 1. 1.
      1. 1. 1. 1. 1. 1. 1. 1. 1. 1. 1. 1. 1. 1. 1. 1. 1. 1. 1. 1. 1. 1.
      1. 1. 1. 1. 1. 1. 1. 1. 1. 1. 1. 1. 1. 1. 1. 1. 1. 1. 1. 1. 1. 1.
      1. 1. 1. 1. 1. 1. 1. 1. 1. 1. 1. 1. 1. 1. 1. 1. 1. 1. 1. 1. 1. 1.
      1. 1. 1. 1. 1. 1. 1. 1. 1. 1. 1. 1. 1. 1. 1. 1. 1. 1. 1. 1. 1. 1.
      1. 1. 1. 1. 1. 1. 1. 1. 1. 1. 1. 1. 1. 1. 1. 1. 1. 1. 1. 1. 1. 1.
      1. 1. 1. 1. 1. 1. 1. 1. 1. 1. 1. 1. 1. 1. 1. 1. 1. 1. 1. 1. 1. 1.
      1. 1. 1. 1. 1. 1. 1. 1. 1. 1. 1. 1. 1. 1. 1. 1. 1. 1. 1. 1. 1. 1.
      1. 1. 1. 1. 1. 1. 1. 1. 1. 1. 1. 1. 1. 1. 1. 1. 1. 1. 1. 1. 1. 1.
      1. 1. 1. 1. 1. 1. 1. 255. 1. 1. 1. 1. 1. 1. 1. 1. 1. 1. 1. 1. 1.
      1. 1. 1. 1. 1. 1. 1. 1. 1. 1. 1. 1. 1. 1. 1. 1. 1. 1. 1. 1. 1. 1.
      1. 1. 1. 1. 1. 1. 1. 1. 1. 1. 1. 1. 1. 255. 1. 1. 1. 1. 1. 1. 1.
      1. 1. 1. 1. 1. 1. 1. 1. 1. 1. 1. 1. 1. 1. 1. 1. 1. 1. 1. 1. 1. 1.
      1. 1. 1. 1. 1. 1. 1. 1. 1. 1. 1. 1. 1. 1. 1. 1. 1. 1. 1. 1. 255.
      1. 1. 1. 1. 1. 1. 1. 1. 1. 1. 1. 1. 1. 1. 1. 1. 1. 1. 1. 1. 1. 1.
      1. 1. 1. 1. 1. 1. 1. 1. 1. 1. 1. 1. 1. 1. 1. 1. 1. 1. 1. 1. 1. 1.
      1. 1. 1. 1. 1. 255. 1. 1. 1. 1. 1. 1. 1. 1. 1. 1. 1. 1. 1. 1. 1.
      1. 1. 1. 1. 1. 1. 1. 1. 1. 1. 1. 1. 1. 1. 1. 1. 1. 1. 1. 1. 1. 1.
      1. 1. 1. 1. 1. 1. 1. 1. 1. 1. 1. 1. 255. 1. 1. 1. 1. 1. 1. 1. 1.
      1. 1. 1. 1. 1. 1. 1. 1. 1. 1. 1. 1. 1. 1. 1. 1. 1. 1. 1. 1. 1. 1.
      1. 1. 1. 1. 1. 1. 1. 1. 1. 1. 1. 1. 1. 1. 1. 1. 1. 1. 1. 255. 1.
      1. 1. 1. 1. 1. 1. 1. 1. 1. 1. 1. 1. 1. 1. 1. 1. 1. 1. 1. 1. 1. 1.
      1. 1. 1. 1. 1. 1. 1. 1. 1. 1. 1. 1. 1. 1. 1. 1. 1. 1. 1. 1. 1. 1.
      1. 1. 1. 1. 255. 1. 1. 1. 1. 1. 1. 1. 1. 1. 1. 1. 1. 1. 1. 1. 1.
      1. 1. 1. 1. 1. 1. 1. 1. 1. 1. 1. 1. 1. 1. 1. 1. 1. 1. 1. 1. 1. 1.
      1. 1. 1. 1. 1. 1. 1. 1. 1. 1. 1. 255. 1. 1. 1. 1. 1. 1. 1. 1. 1.
      1. 1. 1. 1. 1. 1. 1. 1. 1. 1. 1. 1. 1. 1. 1. 1. 1. 1. 1. 1. 1. 1.
      1. 1. 1. 1. 1. 1. 1. 1. 1. 1. 1. 1. 1. 1. 1. 1. 1. 1. 255. 1. 1.
      1. 1. 1. 1. 1. 1. 1. 1. 1. 1. 1. 1. 1. 1. 1. 1. 1. 1. 1. 1. 1. 1.
      1. 1. 1. 1. 1. 1. 1. 1. 1. 1. 1. 1. 1. 1. 1. 1. 1. 1. 1. 1. 1. 1.
      1. 1. 1. 255. 1. 1. 1. 1. 1. 1. 1. 1. 1. 1. 1. 1. 1. 1. 1. 1. 1.
      1. 1. 1. 1. 1. 1. 1. 1. 1. 1. 1. 1. 1. 1. 1. 1. 1. 1. 1. 1. 1. 1.
      1. 1. 1. 1. 1. 1. 1. 1. 1. 1. 255. 1. 1. 1. 1. 1. 1. 1. 1. 1. 1.
      1. 1. 1. 1. 1. 1. 1. 1. 1. 1. 1. 1. 1. 1. 1. 1. 1. 1. 1. 1. 1. 1.
      1. 1. 1. 1. 1. 1. 1. 1. 1. 1. 1. 1. 1. 1. 1. 1. 1. 255. 1. 1. 1.
      1. 1. 1. 1. 1. 1. 1. 1. 1. 1. 1. 1. 1. 1. 1. 1. 1. 1. 1. 1. 1. 1.
      1. 1. 1. 1. 1. 1. 1. 1. 1. 1. 1. 1. 1. 1. 1. 1. 1. 1. 1. 1. 1. 1.
      1. 255. 1. 1. 1. 1. 1. 1. 1. 1. 1. 1. 1. 1. 1. 1. 1. 1. 1. 1. 1.
      1. 1. 1. 1. 1. 1. 1. 1. 1. 1. 1. 1. 1. 1. 1. 1. 1. 1. 1. 1. 1. 1.
      1. 1. 1. 1. 1. 1. 1. 1. 255. 1. 1. 1. 1. 1. 1. 1. 1. 1. 1. 1. 1.
      1. 1. 1. 1. 1. 1. 1. 1. 1. 1. 1. 1. 1. 1. 1. 1. 1. 1. 1. 1. 1. 1.
      1. 1. 1. 1. 1. 1. 1. 1. 1. 1. 1. 1. 1. 1. 1. 255. 1. 1. 1. 1. 1.
      1. 1. 1. 1. 1. 1. 1. 1. 1. 1. 1. 1. 1. 1. 1. 1. 1. 1. 1. 1. 1. 1.
      1. 1. 1. 1. 1. 1. 1. 1. 1. 1. 1. 1. 1. 1. 1. 1. 1. 1. 1. 1. 1. 1.
      255. 1. 1. 1. 1. 1. 1. 1. 1. 1. 1. 1. 1. 1. 1. 1. 1. 1. 1. 1. 1.
      1. 1. 1. 1. 1. 1. 1. 1. 1. 1. 1. 1. 1. 1. 1. 1. 1. 1. 1. 1. 1. 1.
      1. 1. 1. 1. 1. 1. 1. 255. 1. 1. 1. 1. 1. 1. 1. 1. 1. 1. 1. 1. 1.
      1. 1. 1. 1. 1. 1. 1. 1. 1. 1. 1. 1. 1. 1. 1. 1. 1. 1. 1. 1. 1. 1.
      1. 1. 1. 1. 1. 1. 1. 1. 1. 1. 1. 1. 1. 1. 255. 1. 1. 1. 1. 1. 1.
      1. 1. 1. 1. 1. 1. 1. 1. 1. 1. 1. 1. 1. 1. 1. 1. 1. 1. 1. 1. 1. 1.
      1. 1. 1. 1. 1. 1. 1. 1. 1. 1. 1. 1. 1. 1. 1. 1. 1. 1. 1. 1. 1.
      255. 1. 1. 1. 1. 1. 1. 1. 1. 1. 1. 1. 1. 1. 1. 1. 1. 1. 1. 1. 1.
      1. 1. 1. 1. 1. 1. 1. 1. 1. 1. 1. 1. 1. 1. 1. 1. 1. 1. 1. 1. 1. 1.
      1. 1. 1. 1. 1. 1. 1. 255. 1. 1. 1. 1. 1. 1. 1. 1. 1. 1. 1. 1. 1.
      1. 1. 1. 1. 1. 1. 1. 1. 1. 1. 1. 1. 1. 1. 1. 1. 1. 1. 1. 1. 1. 1.
      1. 1. 1. 1. 1. 1. 1. 1. 1. 1. 1. 1. 1. 1. 255. 1. 1. 1. 1. 1. 1.
      1. 1. 1. 1. 1. 1. 1. 1. 1. 1. 1. 1. 1. 1. 1. 1. 1. 1. 1. 1. 1. 1.
      1. 1. 1. 1. 1. 1. 1. 1. 1. 1. 1. 1. 1. 1. 1. 1. 1. 1. 1. 1. 1.
      255. 1. 1. 1. 1. 1. 1. 1. 1. 1. 1. 1. 1. 1. 1. 1. 1. 1. 1. 1. 1.
      1. 1. 1. 1. 1. 1. 1. 1. 1. 1. 1. 1. 1. 1. 1. 1. 1. 1. 1. 1. 1. 1.
      1. 1. 1. 1. 1. 1. 1. 255. 255. 1. 1. 1. 1. 1. 1. 1. 1. 1. 1. 1. 1.
      1. 1. 1. 1. 1. 1. 1. 1. 1. 1. 1. 1. 1. 1. 1. 1. 1. 1. 1. 1. 1. 1.
      1. 1. 1. 1. 1. 1. 1. 1. 1. 1. 1. 1. 1. 1. 1. 255. 255. 1. 1. 1. 1.
      1. 1. 1. 1. 1. 1. 1. 1. 1. 1. 1. 1. 1. 1. 1. 1. 1. 1. 1. 1. 1. 1.
      1. 1. 1. 1. 1. 1. 1. 1. 1. 1. 1. 1. 1. 1. 1. 1. 1. 1. 1. 1. 1. 1.
      1. 255. 255. 255. 255. 255. 255. 255. 255. 255. 1. 1. 1. 1. 1. 1.
      1. 1. 1. 1. 1. 1. 1. 1. 1. 1. 1. 1. 1. 1. 1. 1. 1. 1. 1. 1. 1. 1.
      1. 1. 1. 1. 1. 1. 1. 1. 1. 1. 1. 1. 1. 1. 1. 1. 1. 1. 1. 1. 1. 1.
      1. 1. 1. 1. 1. 1. 1. 1. 1. 1. 1. 1. 1. 1. 1. 1. 1. 1. 1. 1. 1. 1.
      1. 1. 1. 1. 1. 1. 1. 1. 1. 1. 1. 1. 1. 1. 1. 1. 1. 1. 1. 1. 1. 1.
      1. 1. 1. 1. 1. 1. 1. 1. 1. 1. 1. 1. 1. 1. 1. 1. 1. 1. 1. 1. 1. 1.
      1. 1. 1. 1. 1. 1. 1. 1. 1. 1. 1. 1. 1. 1. 1. 1. 1. 1. 1. 1. 1. 1.
      1. 1. 1. 1. 1. 1. 1. 1. 1. 1. 1. 1. 1. 1. 1. 1. 1. 1. 1. 1. 1. 1.
      1. 1. 1. 1. 1. 1. 1. 1. 1. 1. 1. 1. 1. 1. 1. 1. 1. 1. 1. 1. 1. 1.
      1. 1. 1. 1. 1. 1. 1. 1. 1. 1. 1. 1. 1. 1. 1. 1. 1. 1. 1. 1. 1. 1.
      1. 1. 1. 1. 1. 1. 1. 1. 1. 1. 1. 1. 1. 1. 1. 1. 1. 1. 1. 1. 1. 1.
      1. 1. 1. 1. 1. 1. 1. 1. 1. 1. 1. 1. 1. 1. 1. 1. 1. 1. 1. 1. 1. 1.
      1. 1. 1. 1. 1. 1. 1. 1. 1. 1. 1. 1. 1. 1. 1. 1. 1. 1. 1. 1. 1. 1.
      1. 1. 1. 1. 1. 1. 1. 1. 1. 1. 1. 1. 1. 1. 1. 1. 1. 1. 1. 1. 1. 1.
      1. 1. 1. 1. 1. 1. 1. 1. 1. 1. 1. 1. 1. 1. 1. 1. 1. 1. 1. 1. 1. 1.
      1. 1. 1. 1. 1. 1. 1. 1. 1. 1. 1. 1. 1. 1. 1. 1. 1. 1. 1. 1. 1. 1.
      1. 1. 1. 1. 1. 1. 1. 1. 1. 1. 1. 1. 1. 1. 1. 1. 1. 1. 1. 1. 1. 1.
      1. 1. 1. 1. 1. 1. 1. 1. 1. 1. 1. 1. 1. 1. 1. 1. 1. 1. 1. 1. 1. 1.
      1. 1. 1. 1. 1. 1. 1. 1. 1. 1. 1. 1. 1. 1. 1. 1. 1. 1. 1. 1. 1. 1.
      1. 1. 1. 1. 1. 1. 1. 1. 1. 1. 1. 1. 1. 1. 1. 1. 1. 1. 1. 1. 1. 1.
      1. 1. 1. 1. 1. 1. 1. 1. 1. 1. 1. 1. 1. 1. 1. 1. 1. 1. 1. 1. 1. 1.
      1. 1. 1. 1. 1. 1. 1. 1. 1. 1. 1. 1. 1. 1. 1. 1. 1. 1. 1. 1. 1. 1.
      1. 1. 1. 1. 1. 1. 1. 1. 1. 1. 1. 1. 1. 1. 1. 1. 1. 1. 1. 1. 1. 1.
      1. 1. 1. 1. 1. 1. 1. 1. 1. 1. 1. 1. 1. 1. 1. 1. 1. 1. 1. 1. 1. 1.
      1. 1. 1. 1. 1. 1. 1. 1. 1. 1. 1. 1. 1. 1. 1. 1. 1. 1. 1. 1. 1. 1.
      1. 1. 1. 1. 1. 1. 1. 1. 1. 1. 1. 1. 1. 1. 1. 1. 1. 1. 1. 1. 1. 1.
      1. 1. 1. 1. 1. 1. 1. 1. 1. 1. 1. 1. 1. 1. 1. 1. 1. 1. 1. 1. 1. 1.
      1. 1. 1. 1. 1. 1. 1. 1. 1. 1. 1. 1. 1. 1. 1. 1. 1. 1. 1. 1. 1. 1.
      1. 1. 1. 1. 1. 1. 1. 1. 1. 1. 1. 1. 1. 1. 1. 1. 1. 1. 1. 1. 1. 1.
      1. 1. 1. 1. 1. 1. 1. 1. 1. 1. 1. 1. 1. 1. 1. 1. 1. 1. 1. 1. 1. 1.
      1. 1. 1. 1. 1. 1. 1. 1. 1. 1. 1. 1. 1. 1. 1. 1. 1. 1. 1. 1. 1. 1.
      1. 1. 1. 1. 1. 1. 1. 1. 1. 1. 1. 1. 1. 1. 1. 1. 1. 1. 1. 1. 1. 1.
      1. 1. 1. 1. 1. 1. 1. 1. 1. 1. 1. 1. 1. 1. 1. 1. 1. 1. 1. 1. 1. 1.
      1. 1. 1. 1. 1. 1. 1. 1. 1. 1. 1. 1. 1. 1. 1. 1. 1. 1. 1. 1. 1. 1.
      1. 1. 1. 1. 1. 1. 1. 1. 1. 1. 1. 1. 1. 1. 1. 1. 1. 1. 1. 1. 1. 1.
      1. 1. 1. 1. 1. 1. 1. 1. 1. 1. 1. 1. 1. 1. 1. 1. 1. 1. 1. 1. 1. 1.
      1. 1. 1. 1. 1. 1. 1. 1. 1. 1. 1. 1. 1. 1. 1. 1. 1. 1. 1. 1. 1. 1.
      1. 1. 1. 1. 1. 1. 1. 1. 1. 1. 1. 1. 1. 1. 1. 1. 1. 1. 1. 1. 1. 1.
      1. 1. 1. 1. 1. 1. 1. 1. 1. 1. 1. 1. 1. 1. 1. 1. 1. 1. 1. 1. 1. 1.
      1. 1. 1. 1. 1. 1. 1. 1. 1. 1. 1. 1. 1. 1. 1. 1. 1. 1. 1. 1. 1. 1.
      1. 1.</_>
    <_>
      1. 1. 1. 1. 1. 1. 1. 1. 1. 1. 1. 1. 1. 1. 1. 1. 1. 1. 1. 1. 1. 1.
      1. 1. 1. 1. 1. 1. 1. 1. 1. 1. 1. 1. 1. 1. 1. 1. 1. 1. 1. 1. 1. 1.
      1. 1. 1. 1. 1. 1. 1. 1. 1. 1. 1. 1. 1. 1. 1. 1. 1. 1. 1. 1. 1. 1.
      1. 1. 1. 1. 1. 1. 1. 1. 1. 1. 1. 1. 1. 1. 1. 1. 1. 1. 1. 1. 1. 1.
      1. 1. 1. 1. 1. 1. 1. 1. 1. 1. 1. 1. 1. 1. 1. 1. 1. 1. 1. 1. 1. 1.
      1. 1. 1. 1. 1. 1. 1. 1. 1. 1. 1. 1. 1. 1. 1. 1. 1. 1. 1. 1. 1. 1.
      1. 1. 1. 1. 1. 1. 1. 1. 1. 1. 1. 1. 1. 1. 1. 1. 1. 1. 1. 1. 1. 1.
      1. 1. 1. 1. 1. 1. 1. 1. 1. 1. 1. 1. 1. 1. 1. 1. 1. 1. 1. 1. 1. 1.
      1. 1. 1. 1. 1. 1. 1. 1. 1. 1. 1. 1. 1. 1. 1. 1. 1. 1. 1. 1. 1. 1.
      1. 1. 1. 1. 1. 1. 1. 1. 1. 1. 1. 1. 1. 1. 1. 1. 1. 1. 1. 1. 1. 1.
      1. 1. 1. 1. 1. 1. 1. 1. 1. 1. 1. 1. 1. 1. 1. 1. 1. 1. 1. 1. 1. 1.
      1. 1. 1. 1. 1. 1. 1. 1. 1. 1. 1. 1. 1. 1. 1. 1. 1. 1. 1. 1. 1. 1.
      1. 1. 1. 1. 1. 1. 1. 1. 1. 1. 1. 1. 1. 1. 1. 1. 1. 1. 1. 1. 1. 1.
      1. 1. 1. 1. 1. 1. 1. 1. 1. 1. 1. 1. 1. 1. 1. 1. 1. 1. 1. 1. 1. 1.
      1. 1. 1. 1. 1. 1. 1. 1. 1. 1. 1. 1. 1. 1. 1. 1. 1. 1. 1. 1. 1. 1.
      1. 1. 1. 1. 1. 1. 1. 1. 1. 1. 1. 1. 1. 1. 1. 1. 1. 1. 1. 1. 1. 1.
      1. 1. 1. 1. 1. 1. 1. 1. 1. 1. 1. 1. 1. 1. 1. 1. 1. 1. 1. 1. 1. 1.
      1. 1. 1. 1. 1. 1. 1. 1. 1. 1. 1. 1. 1. 1. 1. 1. 1. 1. 1. 1. 1. 1.
      1. 1. 1. 1. 1. 1. 1. 1. 1. 1. 1. 1. 1. 1. 1. 1. 1. 1. 1. 1. 1. 1.
      1. 1. 1. 1. 1. 1. 1. 1. 1. 255. 1. 1. 1. 1. 1. 1. 1. 1. 1. 1. 1.
      1. 1. 1. 1. 1. 1. 1. 1. 1. 1. 1. 1. 1. 1. 1. 1. 1. 1. 1. 1. 1. 1.
      1. 1. 1. 1. 1. 1. 1. 1. 1. 1. 1. 1. 1. 1. 1. 1. 255. 1. 1. 1. 1.
      1. 1. 1. 1. 1. 1. 1. 1. 1. 1. 1. 1. 1. 1. 1. 1. 1. 1. 1. 1. 1. 1.
      1. 1. 1. 1. 1. 1. 1. 1. 1. 1. 1. 1. 1. 1. 1. 1. 1. 1. 1. 1. 1. 1.
      1. 255. 1. 1. 1. 1. 1. 1. 1. 1. 1. 1. 1. 1. 1. 1. 1. 1. 1. 1. 1.
      1. 1. 1. 1. 1. 1. 1. 1. 1. 1. 1. 1. 1. 1. 1. 1. 1. 1. 1. 1. 1. 1.
      1. 1. 1. 1. 1. 1. 1. 1. 255. 1. 1. 1. 1. 1. 1. 1. 1. 1. 1. 1. 1.
      1. 1. 1. 1. 1. 1. 1. 1. 1. 1. 1. 1. 1. 1. 1. 1. 1. 1. 1. 1. 1. 1.
      1. 1. 1. 1. 1. 1. 1. 1. 1. 1. 1. 1. 1. 1. 1. 1. 255. 1. 1. 1. 1.
      1. 1. 1. 1. 1. 1. 1. 1. 1. 1. 1. 1. 1. 1. 1. 1. 1. 1. 1. 1. 1. 1.
      1. 1. 1. 1. 1. 1. 1. 1. 1. 1. 1. 1. 1. 1. 1. 1. 1. 1. 1. 1. 1. 1.
      255. 1. 1. 1. 1. 1. 1. 1. 1. 1. 1. 1. 1. 1. 1. 1. 1. 1. 1. 1. 1.
      1. 1. 1. 1. 1. 1. 1. 1. 1. 1. 1. 1. 1. 1. 1. 1. 1. 1. 1. 1. 1. 1.
      1. 1. 1. 1. 1. 1. 1. 255. 1. 1. 1. 1. 1. 1. 1. 1. 1. 1. 1. 1. 1.
      1. 1. 1. 1. 1. 1. 1. 1. 1. 1. 1. 1. 1. 1. 1. 1. 1. 1. 1. 1. 1. 1.
      1. 1. 1. 1. 1. 1. 1. 1. 1. 1. 1. 1. 1. 1. 255. 1. 1. 1. 1. 1. 1.
      1. 1. 1. 1. 1. 1. 1. 1. 1. 1. 1. 1. 1. 1. 1. 1. 1. 1. 1. 1. 1. 1.
      1. 1. 1. 1. 1. 1. 1. 1. 1. 1. 1. 1. 1. 1. 1. 1. 1. 1. 1. 1. 1.
      255. 1. 1. 1. 1. 1. 1. 1. 1. 1. 1. 1. 1. 1. 1. 1. 1. 1. 1. 1. 1.
      1. 1. 1. 1. 1. 1. 1. 1. 1. 1. 1. 1. 1. 1. 1. 1. 1. 1. 1. 1. 1. 1.
      1. 1. 1. 1. 1. 1. 1. 255. 1. 1. 1. 1. 1. 1. 1. 1. 1. 1. 1. 1. 1.
      1. 1. 1. 1. 1. 1. 1. 1. 1. 1. 1. 1. 1. 1. 1. 1. 1. 1. 1. 1. 1. 1.
      1. 1. 1. 1. 1. 1. 1. 1. 1. 1. 1. 1. 1. 1. 255. 1. 1. 1. 1. 1. 1.
      1. 1. 1. 1. 1. 1. 1. 1. 1. 1. 1. 1. 1. 1. 1. 1. 1. 1. 1. 1. 1. 1.
      1. 1. 1. 1. 1. 1. 1. 1. 1. 1. 1. 1. 1. 1. 1. 1. 1. 1. 1. 1. 1.
      255. 1. 1. 1. 1. 1. 1. 1. 1. 1. 1. 1. 1. 1. 1. 1. 1. 1. 1. 1. 1.
      1. 1. 1. 1. 1. 1. 1. 1. 1. 1. 1. 1. 1. 1. 1. 1. 1. 1. 1. 1. 1. 1.
      1. 1. 1. 1. 1. 1. 1. 255. 1. 1. 1. 1. 1. 1. 1. 1. 1. 1. 1. 1. 1.
      1. 1. 1. 1. 1. 1. 1. 1. 1. 1. 1. 1. 1. 1. 1. 1. 1. 1. 1. 1. 1. 1.
      1. 1. 1. 1. 1. 1. 1. 1. 1. 1. 1. 1. 1. 1. 255. 1. 1. 1. 1. 1. 1.
      1. 1. 1. 1. 1. 1. 1. 1. 1. 1. 1. 1. 1. 1. 1. 1. 1. 1. 1. 1. 1. 1.
      1. 1. 1. 1. 1. 1. 1. 1. 1. 1. 1. 1. 1. 1. 1. 1. 1. 1. 1. 1. 1.
      255. 1. 1. 1. 1. 1. 1. 1. 1. 1. 1. 1. 1. 1. 1. 1. 1. 1. 1. 1. 1.
      1. 1. 1. 1. 1. 1. 1. 1. 1. 1. 1. 1. 1. 1. 1. 1. 1. 1. 1. 1. 1. 1.
      1. 1. 1. 1. 1. 1. 1. 255. 1. 1. 1. 1. 1. 1. 1. 1. 1. 1. 1. 1. 1.
      1. 1. 1. 1. 1. 1. 1. 1. 1. 1. 1. 1. 1. 1. 1. 1. 1. 1. 1. 1. 1. 1.
      1. 1. 1. 1. 1. 1. 1. 1. 1. 1. 1. 1. 1. 1. 255. 1. 1. 1. 1. 1. 1.
      1. 1. 1. 1. 1. 1. 1. 1. 1. 1. 1. 1. 1. 1. 1. 1. 1. 1. 1. 1. 1. 1.
      1. 1. 1. 1. 1. 1. 1. 1. 1. 1. 1. 1. 1. 1. 1. 1. 1. 1. 1. 1. 1.
      255. 1. 1. 1. 1. 1. 1. 1. 1. 1. 1. 1. 1. 1. 1. 1. 1. 1. 1. 1. 1.
      1. 1. 1. 1. 1. 1. 1. 1. 1. 1. 1. 1. 1. 1. 1. 1. 1. 1. 1. 1. 1. 1.
      1. 1. 1. 1. 1. 1. 1. 255. 1. 1. 1. 1. 1. 1. 1. 1. 1. 1. 1. 1. 1.
      1. 1. 1. 1. 1. 1. 1. 1. 1. 1. 1. 1. 1. 1. 1. 1. 1. 1. 1. 1. 1. 1.
      1. 1. 1. 1. 1. 1. 1. 1. 1. 1. 1. 1. 1. 1. 255. 1. 1. 1. 1. 1. 1.
      1. 1. 1. 1. 1. 1. 1. 1. 1. 1. 1. 1. 1. 1. 1. 1. 1. 1. 1. 1. 1. 1.
      1. 1. 1. 1. 1. 1. 1. 1. 1. 1. 1. 1. 1. 1. 1. 1. 1. 1. 1. 1. 1.
      255. 1. 1. 1. 1. 1. 1. 1. 1. 1. 1. 1. 1. 1. 1. 1. 1. 1. 1. 1. 1.
      1. 1. 1. 1. 1. 1. 1. 1. 1. 1. 1. 1. 1. 1. 1. 1. 1. 1. 1. 1. 1. 1.
      1. 1. 1. 1. 1. 1. 255. 1. 1. 1. 1. 1. 1. 1. 1. 1. 1. 1. 1. 1. 1.
      1. 1. 1. 1. 1. 1. 1. 1. 1. 1. 1. 1. 1. 1. 1. 1. 1. 1. 1. 1. 1. 1.
      1. 1. 1. 1. 1. 1. 1. 1. 1. 1. 1. 1. 1. 255. 1. 1. 1. 1. 1. 1. 1.
      1. 1. 1. 1. 1. 1. 1. 1. 1. 1. 1. 1. 1. 1. 1. 1. 1. 1. 1. 1. 1. 1.
      1. 1. 1. 1. 1. 1. 1. 1. 1. 1. 1. 1. 1. 1. 1. 1. 1. 1. 1. 255. 255.
      1. 1. 1. 1. 1. 1. 1. 1. 1. 1. 1. 1. 1. 1. 1. 1. 1. 1. 1. 1. 1. 1.
      1. 1. 1. 1. 1. 1. 1. 1. 1. 1. 1. 1. 1. 1. 1. 1. 1. 255. 255. 255.
      255. 255. 255. 255. 255. 255. 255. 1. 1. 1. 1. 1. 1. 1. 1. 1. 1.
      1. 1. 1. 1. 1. 1. 1. 1. 1. 1. 1. 1. 1. 1. 1. 1. 1. 1. 1. 1. 1. 1.
      1. 1. 1. 1. 1. 1. 1. 1. 1. 1. 1. 1. 1. 1. 1. 1. 1. 1. 1. 1. 1. 1.
      1. 1. 1. 1. 1. 1. 1. 1. 1. 1. 1. 1. 1. 1. 1. 1. 1. 1. 1. 1. 1. 1.
      1. 1. 1. 1. 1. 1. 1. 1. 1. 1. 1. 1. 1. 1. 1. 1. 1. 1. 1. 1. 1. 1.
      1. 1. 1. 1. 1. 1. 1. 1. 1. 1. 1. 1. 1. 1. 1. 1. 1. 1. 1. 1. 1. 1.
      1. 1. 1. 1. 1. 1. 1. 1. 1. 1. 1. 1. 1. 1. 1. 1. 1. 1. 1. 1. 1. 1.
      1. 1. 1. 1. 1. 1. 1. 1. 1. 1. 1. 1. 1. 1. 1. 1. 1. 1. 1. 1. 1. 1.
      1. 1. 1. 1. 1. 1. 1. 1. 1. 1. 1. 1. 1. 1. 1. 1. 1. 1. 1. 1. 1. 1.
      1. 1. 1. 1. 1. 1. 1. 1. 1. 1. 1. 1. 1. 1. 1. 1. 1. 1. 1. 1. 1. 1.
      1. 1. 1. 1. 1. 1. 1. 1. 1. 1. 1. 1. 1. 1. 1. 1. 1. 1. 1. 1. 1. 1.
      1. 1. 1. 1. 1. 1. 1. 1. 1. 1. 1. 1. 1. 1. 1. 1. 1. 1. 1. 1. 1. 1.
      1. 1. 1. 1. 1. 1. 1. 1. 1. 1. 1. 1. 1. 1. 1. 1. 1. 1. 1. 1. 1. 1.
      1. 1. 1. 1. 1. 1. 1. 1. 1. 1. 1. 1. 1. 1. 1. 1. 1. 1. 1. 1. 1. 1.
      1. 1. 1. 1. 1. 1. 1. 1. 1. 1. 1. 1. 1. 1. 1. 1. 1. 1. 1. 1. 1. 1.
      1. 1. 1. 1. 1. 1. 1. 1. 1. 1. 1. 1. 1. 1. 1. 1. 1. 1. 1. 1. 1. 1.
      1. 1. 1. 1. 1. 1. 1. 1. 1. 1. 1. 1. 1. 1. 1. 1. 1. 1. 1. 1. 1. 1.
      1. 1. 1. 1. 1. 1. 1. 1. 1. 1. 1. 1. 1. 1. 1. 1. 1. 1. 1. 1. 1. 1.
      1. 1. 1. 1. 1. 1. 1. 1. 1. 1. 1. 1. 1. 1. 1. 1. 1. 1. 1. 1. 1. 1.
      1. 1. 1. 1. 1. 1. 1. 1. 1. 1. 1. 1. 1. 1. 1. 1. 1. 1. 1. 1. 1. 1.
      1. 1. 1. 1. 1. 1. 1. 1. 1. 1. 1. 1. 1. 1. 1. 1. 1. 1. 1. 1. 1. 1.
      1. 1. 1. 1. 1. 1. 1. 1. 1. 1. 1. 1. 1. 1. 1. 1. 1. 1. 1. 1. 1. 1.
      1. 1. 1. 1. 1. 1. 1. 1. 1. 1. 1. 1. 1. 1. 1. 1. 1. 1. 1. 1. 1. 1.
      1. 1. 1. 1. 1. 1. 1. 1. 1. 1. 1. 1. 1. 1. 1. 1. 1. 1. 1. 1. 1. 1.
      1. 1. 1. 1. 1. 1. 1. 1. 1. 1. 1. 1. 1. 1. 1. 1. 1. 1. 1. 1. 1. 1.
      1. 1. 1. 1. 1. 1. 1. 1. 1. 1. 1. 1. 1. 1. 1. 1. 1. 1. 1. 1. 1. 1.
      1. 1. 1. 1. 1. 1. 1. 1. 1. 1. 1. 1. 1. 1. 1. 1. 1. 1. 1. 1. 1. 1.
      1. 1. 1. 1. 1. 1. 1. 1. 1. 1. 1. 1. 1. 1. 1. 1. 1. 1. 1. 1. 1. 1.
      1. 1. 1. 1. 1. 1. 1. 1. 1. 1. 1. 1. 1. 1. 1. 1. 1. 1. 1. 1. 1. 1.
      1. 1. 1. 1. 1. 1. 1. 1. 1. 1. 1. 1. 1. 1. 1. 1. 1. 1. 1. 1. 1. 1.
      1. 1. 1. 1. 1. 1. 1. 1. 1. 1. 1. 1. 1. 1. 1. 1. 1. 1. 1. 1. 1. 1.
      1. 1. 1. 1. 1. 1. 1. 1. 1. 1. 1. 1. 1. 1. 1. 1. 1. 1. 1. 1. 1. 1.
      1. 1. 1. 1. 1. 1. 1. 1. 1. 1. 1. 1. 1. 1. 1. 1. 1. 1. 1. 1. 1. 1.
      1. 1. 1. 1. 1. 1. 1. 1. 1. 1. 1. 1. 1. 1. 1. 1. 1. 1. 1. 1. 1. 1.
      1. 1. 1. 1. 1. 1. 1. 1. 1. 1. 1. 1. 1. 1. 1. 1. 1. 1. 1. 1. 1. 1.
      1. 1. 1. 1. 1. 1. 1. 1. 1. 1. 1. 1. 1. 1. 1. 1. 1. 1. 1. 1. 1. 1.
      1. 1. 1. 1. 1. 1. 1. 1. 1. 1. 1. 1. 1. 1. 1. 1. 1. 1. 1. 1. 1. 1.
      1. 1. 1. 1. 1. 1. 1. 1. 1. 1. 1. 1. 1. 1. 1. 1. 1. 1. 1. 1. 1. 1.
      1. 1. 1. 1. 1. 1. 1. 1. 1. 1. 1. 1. 1. 1. 1. 1. 1. 1. 1. 1. 1. 1.
      1. 1. 1. 1. 1. 1. 1. 1. 1. 1. 1. 1. 1. 1. 1. 1. 1. 1. 1. 1. 1. 1.
      1. 1. 1. 1. 1. 1.</_>
    <_>
      1. 1. 1. 1. 1. 1. 1. 1. 1. 1. 1. 1. 1. 1. 1. 1. 1. 1. 1. 1. 1. 1.
      1. 1. 1. 1. 1. 1. 1. 1. 1. 1. 1. 1. 1. 1. 1. 1. 1. 1. 1. 1. 1. 1.
      1. 1. 1. 1. 1. 1. 1. 1. 1. 1. 1. 1. 1. 1. 1. 1. 1. 1. 1. 1. 1. 1.
      1. 1. 1. 1. 1. 1. 1. 1. 1. 1. 1. 1. 1. 1. 1. 1. 1. 1. 1. 1. 1. 1.
      1. 1. 1. 1. 1. 1. 1. 1. 1. 1. 1. 1. 1. 1. 1. 1. 1. 1. 1. 1. 1. 1.
      1. 1. 1. 1. 1. 1. 1. 1. 1. 1. 1. 1. 1. 1. 1. 1. 1. 1. 1. 1. 1. 1.
      1. 1. 1. 1. 1. 1. 1. 1. 1. 1. 1. 1. 1. 1. 1. 1. 1. 1. 1. 1. 1. 1.
      1. 1. 1. 1. 1. 1. 1. 1. 1. 1. 1. 1. 1. 1. 1. 1. 1. 1. 1. 1. 1. 1.
      1. 1. 1. 1. 1. 1. 1. 1. 1. 1. 1. 1. 1. 1. 1. 1. 1. 1. 1. 1. 1. 1.
      1. 1. 1. 1. 1. 1. 1. 1. 1. 1. 1. 1. 1. 1. 1. 1. 1. 1. 1. 1. 1. 1.
      1. 1. 1. 1. 1. 1. 1. 1. 1. 1. 1. 1. 1. 1. 1. 1. 1. 1. 1. 1. 1. 1.
      1. 1. 1. 1. 1. 1. 1. 1. 1. 1. 1. 1. 1. 1. 1. 1. 1. 1. 1. 1. 1. 1.
      1. 1. 1. 1. 1. 1. 1. 1. 1. 1. 1. 1. 1. 1. 1. 1. 1. 1. 1. 1. 1. 1.
      1. 1. 1. 1. 1. 1. 1. 1. 1. 1. 1. 1. 1. 1. 1. 1. 1. 1. 1. 1. 1. 1.
      1. 1. 1. 1. 1. 1. 1. 1. 1. 1. 1. 1. 1. 1. 1. 1. 1. 1. 1. 1. 1. 1.
      1. 1. 1. 1. 1. 1. 1. 1. 1. 1. 1. 1. 1. 1. 1. 1. 1. 1. 1. 1. 1. 1.
      1. 1. 1. 1. 1. 1. 1. 1. 1. 1. 1. 1. 1. 1. 1. 1. 1. 1. 1. 1. 1. 1.
      1. 1. 1. 1. 1. 1. 1. 1. 1. 1. 1. 1. 1. 1. 1. 1. 1. 1. 1. 1. 1. 1.
      1. 1. 1. 1. 1. 1. 1. 1. 1. 1. 1. 1. 1. 1. 1. 1. 1. 1. 1. 1. 1. 1.
      1. 1. 1. 1. 1. 1. 255. 1. 1. 1. 1. 1. 1. 1. 1. 1. 1. 1. 1. 1. 1.
      1. 1. 1. 1. 1. 1. 1. 1. 1. 1. 1. 1. 1. 1. 1. 1. 1. 1. 1. 1. 1. 1.
      1. 1. 1. 1. 1. 1. 1. 1. 1. 1. 1. 1. 1. 255. 1. 1. 1. 1. 1. 1. 1.
      1. 1. 1. 1. 1. 1. 1. 1. 1. 1. 1. 1. 1. 1. 1. 1. 1. 1. 1. 1. 1. 1.
      1. 1. 1. 1. 1. 1. 1. 1. 1. 1. 1. 1. 1. 1. 1. 1. 1. 1. 1. 1. 255.
      1. 1. 1. 1. 1. 1. 1. 1. 1. 1. 1. 1. 1. 1. 1. 1. 1. 1. 1. 1. 1. 1.
      1. 1. 1. 1. 1. 1. 1. 1. 1. 1. 1. 1. 1. 1. 1. 1. 1. 1. 1. 1. 1. 1.
      1. 1. 1. 1. 1. 255. 1. 1. 1. 1. 1. 1. 1. 1. 1. 1. 1. 1. 1. 1. 1.
      1. 1. 1. 1. 1. 1. 1. 1. 1. 1. 1. 1. 1. 1. 1. 1. 1. 1. 1. 1. 1. 1.
      1. 1. 1. 1. 1. 1. 1. 1. 1. 1. 1. 1. 255. 1. 1. 1. 1. 1. 1. 1. 1.
      1. 1. 1. 1. 1. 1. 1. 1. 1. 1. 1. 1. 1. 1. 1. 1. 1. 1. 1. 1. 1. 1.
      1. 1. 1. 1. 1. 1. 1. 1. 1. 1. 1. 1. 1. 1. 1. 1. 1. 1. 1. 255. 1.
      1. 1. 1. 1. 1. 1. 1. 1. 1. 1. 1. 1. 1. 1. 1. 1. 1. 1. 1. 1. 1. 1.
      1. 1. 1. 1. 1. 1. 1. 1. 1. 1. 1. 1. 1. 1. 1. 1. 1. 1. 1. 1. 1. 1.
      1. 1. 1. 1. 255. 1. 1. 1. 1. 1. 1. 1. 1. 1. 1. 1. 1. 1. 1. 1. 1.
      1. 1. 1. 1. 1. 1. 1. 1. 1. 1. 1. 1. 1. 1. 1. 1. 1. 1. 1. 1. 1. 1.
      1. 1. 1. 1. 1. 1. 1. 1. 1. 1. 1. 255. 1. 1. 1. 1. 1. 1. 1. 1. 1.
      1. 1. 1. 1. 1. 1. 1. 1. 1. 1. 1. 1. 1. 1. 1. 1. 1. 1. 1. 1. 1. 1.
      1. 1. 1. 1. 1. 1. 1. 1. 1. 1. 1. 1. 1. 1. 1. 1. 1. 1. 255. 1. 1.
      1. 1. 1. 1. 1. 1. 1. 1. 1. 1. 1. 1. 1. 1. 1. 1. 1. 1. 1. 1. 1. 1.
      1. 1. 1. 1. 1. 1. 1. 1. 1. 1. 1. 1. 1. 1. 1. 1. 1. 1. 1. 1. 1. 1.
      1. 1. 1. 255. 1. 1. 1. 1. 1. 1. 1. 1. 1. 1. 1. 1. 1. 1. 1. 1. 1.
      1. 1. 1. 1. 1. 1. 1. 1. 1. 1. 1. 1. 1. 1. 1. 1. 1. 1. 1. 1. 1. 1.
      1. 1. 1. 1. 1. 1. 1. 1. 1. 1. 255. 1. 1. 1. 1. 1. 1. 1. 1. 1. 1.
      1. 1. 1. 1. 1. 1. 1. 1. 1. 1. 1. 1. 1. 1. 1. 1. 1. 1. 1. 1. 1. 1.
      1. 1. 1. 1. 1. 1. 1. 1. 1. 1. 1. 1. 1. 1. 1. 1. 255. 1. 1. 1. 1.
      1. 1. 1. 1. 1. 1. 1. 1. 1. 1. 1. 1. 1. 1. 1. 1. 1. 1. 1. 1. 1. 1.
      1. 1. 1. 1. 1. 1. 1. 1. 1. 1. 1. 1. 1. 1. 1. 1. 1. 1. 1. 1. 1. 1.
      1. 255. 1. 1. 1. 1. 1. 1. 1. 1. 1. 1. 1. 1. 1. 1. 1. 1. 1. 1. 1.
      1. 1. 1. 1. 1. 1. 1. 1. 1. 1. 1. 1. 1. 1. 1. 1. 1. 1. 1. 1. 1. 1.
      1. 1. 1. 1. 1. 1. 1. 1. 255. 1. 1. 1. 1. 1. 1. 1. 1. 1. 1. 1. 1.
      1. 1. 1. 1. 1. 1. 1. 1. 1. 1. 1. 1. 1. 1. 1. 1. 1. 1. 1. 1. 1. 1.
      1. 1. 1. 1. 1. 1. 1. 1. 1. 1. 1. 1. 1. 1. 1. 255. 1. 1. 1. 1. 1.
      1. 1. 1. 1. 1. 1. 1. 1. 1. 1. 1. 1. 1. 1. 1. 1. 1. 1. 1. 1. 1. 1.
      1. 1. 1. 1. 1. 1. 1. 1. 1. 1. 1. 1. 1. 1. 1. 1. 1. 1. 1. 1. 1. 1.
      255. 1. 1. 1. 1. 1. 1. 1. 1. 1. 1. 1. 1. 1. 1. 1. 1. 1. 1. 1. 1.
      1. 1. 1. 1. 1. 1. 1. 1. 1. 1. 1. 1. 1. 1. 1. 1. 1. 1. 1. 1. 1. 1.
      1. 1. 1. 1. 1. 1. 1. 255. 1. 1. 1. 1. 1. 1. 1. 1. 1. 1. 1. 1. 1.
      1. 1. 1. 1. 1. 1. 1. 1. 1. 1. 1. 1. 1. 1. 1. 1. 1. 1. 1. 1. 1. 1.
      1. 1. 1. 1. 1. 1. 1. 1. 1. 1. 1. 1. 1. 1. 255. 1. 1. 1. 1. 1. 1.
      1. 1. 1. 1. 1. 1. 1. 1. 1. 1. 1. 1. 1. 1. 1. 1. 1. 1. 1. 1. 1. 1.
      1. 1. 1. 1. 1. 1. 1. 1. 1. 1. 1. 1. 1. 1. 1. 1. 1. 1. 1. 1. 1.
      255. 1. 1. 1. 1. 1. 1. 1. 1. 1. 1. 1. 1. 1. 1. 1. 1. 1. 1. 1. 1.
      1. 1. 1. 1. 1. 1. 1. 1. 1. 1. 1. 1. 1. 1. 1. 1. 1. 1. 1. 1. 1. 1.
      1. 1. 1. 1. 1. 1. 1. 255. 1. 1. 1. 1. 1. 1. 1. 1. 1. 1. 1. 1. 1.
      1. 1. 1. 1. 1. 1. 1. 1. 1. 1. 1. 1. 1. 1. 1. 1. 1. 1. 1. 1. 1. 1.
      1. 1. 1. 1. 1. 1. 1. 1. 1. 1. 1. 1. 1. 1. 255. 1. 1. 1. 1. 1. 1.
      1. 1. 1. 1. 1. 1. 1. 1. 1. 1. 1. 1. 1. 1. 1. 1. 1. 1. 1. 1. 1. 1.
      1. 1. 1. 1. 1. 1. 1. 1. 1. 1. 1. 1. 1. 1. 1. 1. 1. 1. 1. 1. 1.
      255. 1. 1. 1. 1. 1. 1. 1. 1. 1. 1. 1. 1. 1. 1. 1. 1. 1. 1. 1. 1.
      1. 1. 1. 1. 1. 1. 1. 1. 1. 1. 1. 1. 1. 1. 1. 1. 1. 1. 1. 1. 1. 1.
      1. 1. 1. 1. 1. 1. 1. 255. 255. 1. 1. 1. 1. 1. 1. 1. 1. 1. 1. 1. 1.
      1. 1. 1. 1. 1. 1. 1. 1. 1. 1. 1. 1. 1. 1. 1. 1. 1. 1. 1. 1. 1. 1.
      1. 1. 1. 1. 1. 1. 1. 1. 1. 1. 1. 1. 1. 1. 1. 255. 255. 1. 1. 1. 1.
      1. 1. 1. 1. 1. 1. 1. 1. 1. 1. 1. 1. 1. 1. 1. 1. 1. 1. 1. 1. 1. 1.
      1. 1. 1. 1. 1. 1. 1. 1. 1. 1. 1. 1. 1. 1. 1. 1. 1. 1. 1. 1. 1. 1.
      1. 255. 255. 255. 255. 255. 255. 255. 255. 255. 1. 1. 1. 1. 1. 1.
      1. 1. 1. 1. 1. 1. 1. 1. 1. 1. 1. 1. 1. 1. 1. 1. 1. 1. 1. 1. 1. 1.
      1. 1. 1. 1. 1. 1. 1. 1. 1. 1. 1. 1. 1. 1. 1. 1. 1. 1. 1. 1. 1. 1.
      1. 1. 1. 1. 1. 1. 1. 1. 1. 1. 1. 1. 1. 1. 1. 1. 1. 1. 1. 1. 1. 1.
      1. 1. 1. 1. 1. 1. 1. 1. 1. 1. 1. 1. 1. 1. 1. 1. 1. 1. 1. 1. 1. 1.
      1. 1. 1. 1. 1. 1. 1. 1. 1. 1. 1. 1. 1. 1. 1. 1. 1. 1. 1. 1. 1. 1.
      1. 1. 1. 1. 1. 1. 1. 1. 1. 1. 1. 1. 1. 1. 1. 1. 1. 1. 1. 1. 1. 1.
      1. 1. 1. 1. 1. 1. 1. 1. 1. 1. 1. 1. 1. 1. 1. 1. 1. 1. 1. 1. 1. 1.
      1. 1. 1. 1. 1. 1. 1. 1. 1. 1. 1. 1. 1. 1. 1. 1. 1. 1. 1. 1. 1. 1.
      1. 1. 1. 1. 1. 1. 1. 1. 1. 1. 1. 1. 1. 1. 1. 1. 1. 1. 1. 1. 1. 1.
      1. 1. 1. 1. 1. 1. 1. 1. 1. 1. 1. 1. 1. 1. 1. 1. 1. 1. 1. 1. 1. 1.
      1. 1. 1. 1. 1. 1. 1. 1. 1. 1. 1. 1. 1. 1. 1. 1. 1. 1. 1. 1. 1. 1.
      1. 1. 1. 1. 1. 1. 1. 1. 1. 1. 1. 1. 1. 1. 1. 1. 1. 1. 1. 1. 1. 1.
      1. 1. 1. 1. 1. 1. 1. 1. 1. 1. 1. 1. 1. 1. 1. 1. 1. 1. 1. 1. 1. 1.
      1. 1. 1. 1. 1. 1. 1. 1. 1. 1. 1. 1. 1. 1. 1. 1. 1. 1. 1. 1. 1. 1.
      1. 1. 1. 1. 1. 1. 1. 1. 1. 1. 1. 1. 1. 1. 1. 1. 1. 1. 1. 1. 1. 1.
      1. 1. 1. 1. 1. 1. 1. 1. 1. 1. 1. 1. 1. 1. 1. 1. 1. 1. 1. 1. 1. 1.
      1. 1. 1. 1. 1. 1. 1. 1. 1. 1. 1. 1. 1. 1. 1. 1. 1. 1. 1. 1. 1. 1.
      1. 1. 1. 1. 1. 1. 1. 1. 1. 1. 1. 1. 1. 1. 1. 1. 1. 1. 1. 1. 1. 1.
      1. 1. 1. 1. 1. 1. 1. 1. 1. 1. 1. 1. 1. 1. 1. 1. 1. 1. 1. 1. 1. 1.
      1. 1. 1. 1. 1. 1. 1. 1. 1. 1. 1. 1. 1. 1. 1. 1. 1. 1. 1. 1. 1. 1.
      1. 1. 1. 1. 1. 1. 1. 1. 1. 1. 1. 1. 1. 1. 1. 1. 1. 1. 1. 1. 1. 1.
      1. 1. 1. 1. 1. 1. 1. 1. 1. 1. 1. 1. 1. 1. 1. 1. 1. 1. 1. 1. 1. 1.
      1. 1. 1. 1. 1. 1. 1. 1. 1. 1. 1. 1. 1. 1. 1. 1. 1. 1. 1. 1. 1. 1.
      1. 1. 1. 1. 1. 1. 1. 1. 1. 1. 1. 1. 1. 1. 1. 1. 1. 1. 1. 1. 1. 1.
      1. 1. 1. 1. 1. 1. 1. 1. 1. 1. 1. 1. 1. 1. 1. 1. 1. 1. 1. 1. 1. 1.
      1. 1. 1. 1. 1. 1. 1. 1. 1. 1. 1. 1. 1. 1. 1. 1. 1. 1. 1. 1. 1. 1.
      1. 1. 1. 1. 1. 1. 1. 1. 1. 1. 1. 1. 1. 1. 1. 1. 1. 1. 1. 1. 1. 1.
      1. 1. 1. 1. 1. 1. 1. 1. 1. 1. 1. 1. 1. 1. 1. 1. 1. 1. 1. 1. 1. 1.
      1. 1. 1. 1. 1. 1. 1. 1. 1. 1. 1. 1. 1. 1. 1. 1. 1. 1. 1. 1. 1. 1.
      1. 1. 1. 1. 1. 1. 1. 1. 1. 1. 1. 1. 1. 1. 1. 1. 1. 1. 1. 1. 1. 1.
      1. 1. 1. 1. 1. 1. 1. 1. 1. 1. 1. 1. 1. 1. 1. 1. 1. 1. 1. 1. 1. 1.
      1. 1. 1. 1. 1. 1. 1. 1. 1. 1. 1. 1. 1. 1. 1. 1. 1. 1. 1. 1. 1. 1.
      1. 1. 1. 1. 1. 1. 1. 1. 1. 1. 1. 1. 1. 1. 1. 1. 1. 1. 1. 1. 1. 1.
      1. 1. 1. 1. 1. 1. 1. 1. 1. 1. 1. 1. 1. 1. 1. 1. 1. 1. 1. 1. 1. 1.
      1. 1. 1. 1. 1. 1. 1. 1. 1. 1. 1. 1. 1. 1. 1. 1. 1. 1. 1. 1. 1. 1.
      1. 1. 1. 1. 1. 1. 1. 1. 1. 1. 1. 1. 1. 1. 1. 1. 1. 1. 1. 1. 1. 1.
      1. 1. 1. 1. 1. 1. 1. 1. 1. 1. 1. 1. 1. 1. 1. 1. 1. 1. 1. 1. 1. 1.
      1. 1. 1. 1. 1. 1. 1. 1. 1. 1. 1. 1. 1. 1. 1. 1. 1. 1. 1. 1. 1. 1.
      1. 1. 1. 1. 1. 1. 1. 1. 1. 1. 1. 1. 1. 1. 1. 1. 1. 1. 1. 1. 1. 1.
      1. 1.</_>
    <_>
      1. 1. 1. 1. 1. 1. 1. 1. 1. 1. 1. 1. 1. 1. 1. 1. 1. 1. 1. 1. 1. 1.
      1. 1. 1. 1. 1. 1. 1. 1. 1. 1. 1. 1. 1. 1. 1. 1. 1. 1. 1. 1. 1. 1.
      1. 1. 1. 1. 1. 1. 1. 1. 1. 1. 1. 1. 1. 1. 1. 1. 1. 1. 1. 1. 1. 1.
      1. 1. 1. 1. 1. 1. 1. 1. 1. 1. 1. 1. 1. 1. 1. 1. 1. 1. 1. 1. 1. 1.
      1. 1. 1. 1. 1. 1. 1. 1. 1. 1. 1. 1. 1. 1. 1. 1. 1. 1. 1. 1. 1. 1.
      1. 1. 1. 1. 1. 1. 1. 1. 1. 1. 1. 1. 1. 1. 1. 1. 1. 1. 1. 1. 1. 1.
      1. 1. 1. 1. 1. 1. 1. 1. 1. 1. 1. 1. 1. 1. 1. 1. 1. 1. 1. 1. 1. 1.
      1. 1. 1. 1. 1. 1. 1. 1. 1. 1. 1. 1. 1. 1. 1. 1. 1. 1. 1. 1. 1. 1.
      1. 1. 1. 1. 1. 1. 1. 1. 1. 1. 1. 1. 1. 1. 1. 1. 1. 1. 1. 1. 1. 1.
      1. 1. 1. 1. 1. 1. 1. 1. 1. 1. 1. 1. 1. 1. 1. 1. 1. 1. 1. 1. 1. 1.
      1. 1. 1. 1. 1. 1. 1. 1. 1. 1. 1. 1. 1. 1. 1. 1. 1. 1. 1. 1. 1. 1.
      1. 1. 1. 1. 1. 1. 1. 1. 1. 1. 1. 1. 1. 1. 1. 1. 1. 1. 1. 1. 1. 1.
      1. 1. 1. 1. 1. 1. 1. 1. 1. 1. 1. 1. 1. 1. 1. 1. 1. 1. 1. 1. 1. 1.
      1. 1. 1. 1. 1. 1. 1. 1. 1. 1. 1. 1. 1. 1. 1. 1. 1. 1. 1. 1. 1. 1.
      1. 1. 1. 1. 1. 1. 1. 1. 1. 1. 1. 1. 1. 1. 1. 1. 1. 1. 1. 1. 1. 1.
      1. 1. 1. 1. 1. 1. 1. 1. 1. 1. 1. 1. 1. 1. 1. 1. 1. 1. 1. 1. 1. 1.
      1. 1. 1. 1. 1. 1. 1. 1. 1. 1. 1. 1. 1. 1. 1. 1. 1. 1. 1. 1. 1. 1.
      1. 1. 1. 1. 1. 1. 1. 1. 1. 1. 1. 1. 1. 1. 1. 1. 1. 1. 1. 1. 1. 1.
      1. 1. 1. 1. 1. 1. 1. 1. 1. 1. 1. 1. 1. 1. 1. 1. 1. 1. 1. 1. 1. 1.
      1. 1. 1. 1. 255. 1. 1. 1. 1. 1. 1. 1. 1. 1. 1. 1. 1. 1. 1. 1. 1.
      1. 1. 1. 1. 1. 1. 1. 1. 1. 1. 1. 1. 1. 1. 1. 1. 1. 1. 1. 1. 1. 1.
      1. 1. 1. 1. 1. 1. 1. 1. 1. 1. 1. 1. 1. 1. 1. 1. 1. 1. 1. 1. 1. 1.
      1. 1. 1. 1. 1. 1. 1. 1. 1. 1. 1. 1. 1. 1. 1. 1. 1. 1. 1. 1. 1. 1.
      1. 1. 1. 1. 1. 1. 1. 1. 1. 1. 1. 1. 1. 1. 1. 1. 1. 1. 1. 1. 1. 1.
      1. 1. 1. 1. 1. 1. 1. 1. 1. 1. 1. 1. 1. 1. 1. 1. 1. 1. 1. 1. 1. 1.
      1. 1. 1. 1. 1. 1. 1. 1. 1. 1. 1. 1. 1. 1. 1. 1. 1. 1. 1. 1. 1. 1.
      1. 255. 1. 1. 1. 1. 1. 1. 1. 1. 1. 1. 1. 1. 1. 1. 1. 1. 1. 1. 1.
      1. 1. 1. 1. 1. 1. 1. 1. 1. 1. 1. 1. 1. 1. 1. 1. 1. 1. 1. 1. 1. 1.
      1. 1. 1. 1. 1. 1. 1. 1. 1. 1. 1. 1. 1. 1. 1. 1. 1. 1. 1. 1. 1. 1.
      1. 1. 1. 1. 1. 1. 1. 1. 1. 1. 1. 1. 1. 1. 1. 1. 1. 1. 1. 1. 1. 1.
      1. 1. 1. 1. 1. 1. 1. 1. 1. 1. 1. 1. 1. 1. 255. 1. 1. 1. 1. 1. 1.
      1. 1. 1. 1. 1. 1. 1. 1. 1. 1. 1. 1. 1. 1. 1. 1. 1. 1. 1. 1. 1. 1.
      1. 1. 1. 1. 1. 1. 1. 1. 1. 1. 1. 1. 1. 1. 1. 1. 1. 1. 1. 1. 1.
      255. 1. 1. 1. 1. 1. 1. 1. 1. 1. 1. 1. 1. 1. 1. 1. 1. 1. 1. 1. 1.
      1. 1. 1. 1. 1. 1. 1. 1. 1. 1. 1. 1. 1. 1. 1. 1. 1. 1. 1. 1. 1. 1.
      1. 1. 1. 1. 1. 1. 1. 255. 1. 1. 1. 1. 1. 1. 1. 1. 1. 1. 1. 1. 1.
      1. 1. 1. 1. 1. 1. 1. 1. 1. 1. 1. 1. 1. 1. 1. 1. 1. 1. 1. 1. 1. 1.
      1. 1. 1. 1. 1. 1. 1. 1. 1. 1. 1. 1. 1. 1. 255. 1. 1. 1. 1. 1. 1.
      1. 1. 1. 1. 1. 1. 1. 1. 1. 1. 1. 1. 1. 1. 1. 1. 1. 1. 1. 1. 1. 1.
      1. 1. 1. 1. 1. 1. 1. 1. 1. 1. 1. 1. 1. 1. 1. 1. 1. 1. 1. 1. 1.
      255. 1. 1. 1. 1. 1. 1. 1. 1. 1. 1. 1. 1. 1. 1. 1. 1. 1. 1. 1. 1.
      1. 1. 1. 1. 1. 1. 1. 1. 1. 1. 1. 1. 1. 1. 1. 1. 1. 1. 1. 1. 1. 1.
      1. 1. 1. 1. 1. 1. 1. 1. 1. 1. 1. 1. 1. 1. 1. 1. 1. 1. 1. 1. 1. 1.
      1. 1. 1. 1. 1. 1. 1. 1. 1. 1. 1. 1. 1. 1. 1. 1. 1. 1. 1. 1. 1. 1.
      1. 1. 1. 1. 1. 1. 1. 1. 1. 1. 1. 1. 1. 255. 1. 1. 1. 1. 1. 1. 1.
      1. 1. 1. 1. 1. 1. 1. 1. 1. 1. 1. 1. 1. 1. 1. 1. 1. 1. 1. 1. 1. 1.
      1. 1. 1. 1. 1. 1. 1. 1. 1. 1. 1. 1. 1. 1. 1. 1. 1. 1. 1. 1. 1. 1.
      1. 1. 1. 1. 1. 1. 1. 1. 1. 1. 1. 1. 1. 1. 1. 1. 1. 1. 1. 1. 1. 1.
      1. 1. 1. 1. 1. 1. 1. 1. 1. 1. 1. 1. 1. 1. 1. 1. 1. 1. 1. 1. 1. 1.
      1. 1. 1. 1. 255. 1. 1. 1. 1. 1. 1. 1. 1. 1. 1. 1. 1. 1. 1. 1. 1.
      1. 1. 1. 1. 1. 1. 1. 1. 1. 1. 1. 1. 1. 1. 1. 1. 1. 1. 1. 1. 1. 1.
      1. 1. 1. 1. 1. 1. 1. 1. 1. 1. 1. 255. 1. 1. 1. 1. 1. 1. 1. 1. 1.
      1. 1. 1. 1. 1. 1. 1. 1. 1. 1. 1. 1. 1. 1. 1. 1. 1. 1. 1. 1. 1. 1.
      1. 1. 1. 1. 1. 1. 1. 1. 1. 1. 1. 1. 1. 1. 1. 1. 1. 1. 1. 1. 1. 1.
      1. 1. 1. 1. 1. 1. 1. 1. 1. 1. 1. 1. 1. 1. 1. 1. 1. 1. 1. 1. 1. 1.
      1. 1. 1. 1. 1. 1. 1. 1. 1. 1. 1. 1. 1. 1. 1. 1. 1. 1. 1. 1. 1. 1.
      1. 1. 255. 1. 1. 1. 1. 1. 1. 1. 1. 1. 1. 1. 1. 1. 1. 1. 1. 1. 1.
      1. 1. 1. 1. 1. 1. 1. 1. 1. 1. 1. 1. 1. 1. 1. 1. 1. 1. 1. 1. 1. 1.
      1. 1. 1. 1. 1. 1. 1. 1. 1. 255. 1. 1. 1. 1. 1. 1. 1. 1. 1. 1. 1.
      1. 1. 1. 1. 1. 1. 1. 1. 1. 1. 1. 1. 1. 1. 1. 1. 1. 1. 1. 1. 1. 1.
      1. 1. 1. 1. 1. 1. 1. 1. 1. 1. 1. 1. 1. 1. 1. 1. 255. 1. 1. 1. 1.
      1. 1. 1. 1. 1. 1. 1. 1. 1. 1. 1. 1. 1. 1. 1. 1. 1. 1. 1. 1. 1. 1.
      1. 1. 1. 1. 1. 1. 1. 1. 1. 1. 1. 1. 1. 1. 1. 1. 1. 1. 1. 1. 1. 1.
      1. 255. 1. 1. 1. 1. 1. 1. 1. 1. 1. 1. 1. 1. 1. 1. 1. 1. 1. 1. 1.
      1. 1. 1. 1. 1. 1. 1. 1. 1. 1. 1. 1. 1. 1. 1. 1. 1. 1. 1. 1. 1. 1.
      1. 1. 1. 1. 1. 1. 1. 1. 255. 255. 1. 1. 1. 1. 1. 1. 1. 1. 1. 1. 1.
      1. 1. 1. 1. 1. 1. 1. 1. 1. 1. 1. 1. 1. 1. 1. 1. 1. 1. 1. 1. 1. 1.
      1. 1. 1. 1. 1. 1. 1. 1. 1. 1. 1. 1. 1. 1. 1. 1. 255. 255. 1. 1. 1.
      1. 1. 1. 255. 255. 1. 1. 1. 1. 1. 1. 1. 1. 1. 1. 1. 1. 1. 1. 1. 1.
      1. 1. 1. 1. 1. 1. 1. 1. 1. 1. 1. 1. 1. 1. 1. 1. 1. 1. 1. 1. 1. 1.
      1. 1. 1. 255. 255. 255. 255. 255. 255. 255. 1. 1. 1. 1. 1. 1. 1.
      1. 1. 1. 1. 1. 1. 1. 1. 1. 1. 1. 1. 1. 1. 1. 1. 1. 1. 1. 1. 1. 1.
      1. 1. 1. 1. 1. 1. 1. 1. 1. 1. 1. 1. 1. 1. 1. 1. 1. 1. 1. 1. 1. 1.
      1. 1. 1. 1. 1. 1. 1. 1. 1. 1. 1. 1. 1. 1. 1. 1. 1. 1. 1. 1. 1. 1.
      1. 1. 1. 1. 1. 1. 1. 1. 1. 1. 1. 1. 1. 1. 1. 1. 1. 1. 1. 1. 1. 1.
      1. 1. 1. 1. 1. 1. 1. 1. 1. 1. 1. 1. 1. 1. 1. 1. 1. 1. 1. 1. 1. 1.
      1. 1. 1. 1. 1. 1. 1. 1. 1. 1. 1. 1. 1. 1. 1. 1. 1. 1. 1. 1. 1. 1.
      1. 1. 1. 1. 1. 1. 1. 1. 1. 1. 1. 1. 1. 1. 1. 1. 1. 1. 1. 1. 1. 1.
      1. 1. 1. 1. 1. 1. 1. 1. 1. 1. 1. 1. 1. 1. 1. 1. 1. 1. 1. 1. 1. 1.
      1. 1. 1. 1. 1. 1. 1. 1. 1. 1. 1. 1. 1. 1. 1. 1. 1. 1. 1. 1. 1. 1.
      1. 1. 1. 1. 1. 1. 1. 1. 1. 1. 1. 1. 1. 1. 1. 1. 1. 1. 1. 1. 1. 1.
      1. 1. 1. 1. 1. 1. 1. 1. 1. 1. 1. 1. 1. 1. 1. 1. 1. 1. 1. 1. 1. 1.
      1. 1. 1. 1. 1. 1. 1. 1. 1. 1. 1. 1. 1. 1. 1. 1. 1. 1. 1. 1. 1. 1.
      1. 1. 1. 1. 1. 1. 1. 1. 1. 1. 1. 1. 1. 1. 1. 1. 1. 1. 1. 1. 1. 1.
      1. 1. 1. 1. 1. 1. 1. 1. 1. 1. 1. 1. 1. 1. 1. 1. 1. 1. 1. 1. 1. 1.
      1. 1. 1. 1. 1. 1. 1. 1. 1. 1. 1. 1. 1. 1. 1. 1. 1. 1. 1. 1. 1. 1.
      1. 1. 1. 1. 1. 1. 1. 1. 1. 1. 1. 1. 1. 1. 1. 1. 1. 1. 1. 1. 1. 1.
      1. 1. 1. 1. 1. 1. 1. 1. 1. 1. 1. 1. 1. 1. 1. 1. 1. 1. 1. 1. 1. 1.
      1. 1. 1. 1. 1. 1. 1. 1. 1. 1. 1. 1. 1. 1. 1. 1. 1. 1. 1. 1. 1. 1.
      1. 1. 1. 1. 1. 1. 1. 1. 1. 1. 1. 1. 1. 1. 1. 1. 1. 1. 1. 1. 1. 1.
      1. 1. 1. 1. 1. 1. 1. 1. 1. 1. 1. 1. 1. 1. 1. 1. 1. 1. 1. 1. 1. 1.
      1. 1. 1. 1. 1. 1. 1. 1. 1. 1. 1. 1. 1. 1. 1. 1. 1. 1. 1. 1. 1. 1.
      1. 1. 1. 1. 1. 1. 1. 1. 1. 1. 1. 1. 1. 1. 1. 1. 1. 1. 1. 1. 1. 1.
      1. 1. 1. 1. 1. 1. 1. 1. 1. 1. 1. 1. 1. 1. 1. 1. 1. 1. 1. 1. 1. 1.
      1. 1. 1. 1. 1. 1. 1. 1. 1. 1. 1. 1. 1. 1. 1. 1. 1. 1. 1. 1. 1. 1.
      1. 1. 1. 1. 1. 1. 1. 1. 1. 1. 1. 1. 1. 1. 1. 1. 1. 1. 1. 1. 1. 1.
      1. 1. 1. 1. 1. 1. 1. 1. 1. 1. 1. 1. 1. 1. 1. 1. 1. 1. 1. 1. 1. 1.
      1. 1. 1. 1. 1. 1. 1. 1. 1. 1. 1. 1. 1. 1. 1. 1. 1. 1. 1. 1. 1. 1.
      1. 1. 1. 1. 1. 1. 1. 1. 1. 1. 1. 1. 1. 1. 1. 1. 1. 1. 1. 1. 1. 1.
      1. 1. 1. 1. 1. 1. 1. 1. 1. 1. 1. 1. 1. 1. 1. 1. 1. 1. 1. 1. 1. 1.
      1. 1. 1. 1. 1. 1. 1. 1. 1. 1. 1. 1. 1. 1. 1. 1. 1. 1. 1. 1. 1. 1.
      1. 1. 1. 1. 1. 1. 1. 1. 1. 1. 1. 1. 1. 1. 1. 1. 1. 1. 1. 1. 1. 1.
      1. 1. 1. 1. 1. 1. 1. 1. 1. 1. 1. 1. 1. 1. 1. 1. 1. 1. 1. 1. 1. 1.
      1. 1. 1. 1. 1. 1. 1. 1. 1. 1. 1. 1. 1. 1. 1. 1. 1. 1. 1. 1. 1. 1.
      1. 1. 1. 1. 1. 1. 1. 1. 1. 1. 1. 1. 1. 1. 1. 1. 1. 1. 1. 1. 1. 1.
      1. 1. 1. 1. 1. 1. 1. 1. 1. 1. 1. 1. 1. 1. 1. 1. 1. 1. 1. 1. 1. 1.
      1. 1. 1. 1. 1. 1. 1. 1. 1. 1. 1. 1. 1. 1. 1. 1. 1. 1. 1. 1. 1. 1.
      1. 1. 1. 1. 1. 1. 1. 1. 1. 1. 1. 1. 1. 1. 1. 1. 1. 1. 1. 1. 1. 1.
      1. 1. 1. 1. 1. 1. 1. 1. 1. 1. 1. 1. 1. 1. 1. 1. 1. 1. 1. 1. 1. 1.
      1. 1. 1. 1. 1. 1. 1. 1. 1. 1. 1. 1. 1. 1. 1. 1. 1. 1. 1. 1. 1. 1.
      1. 1. 1. 1. 1. 1. 1. 1. 1. 1. 1. 1. 1. 1. 1. 1. 1. 1. 1. 1. 1. 1.
      1. 1. 1. 1. 1. 1. 1. 1. 1. 1. 1. 1. 1. 1. 1. 1. 1. 1. 1. 1. 1. 1.
      1. 1. 1. 1. 1. 1. 1. 1. 1. 1. 1. 1. 1. 1. 1. 1. 1. 1. 1. 1. 1. 1.
      1. 1. 1. 1. 1. 1. 1. 1. 1. 1. 1. 1. 1. 1. 1. 1. 1. 1. 1. 1. 1. 1.
      1. 1. 1. 1. 1. 1. 1. 1. 1. 1. 1. 1. 1. 1. 1. 1.</_>
    <_>
      1. 1. 1. 1. 1. 1. 1. 1. 1. 1. 1. 1. 1. 1. 1. 1. 1. 1. 1. 1. 1. 1.
      1. 1. 1. 1. 1. 1. 1. 1. 1. 1. 1. 1. 1. 1. 1. 1. 1. 1. 1. 1. 1. 1.
      1. 1. 1. 1. 1. 1. 1. 1. 1. 1. 1. 1. 1. 1. 1. 1. 1. 1. 1. 1. 1. 1.
      1. 1. 1. 1. 1. 1. 1. 1. 1. 1. 1. 1. 1. 1. 1. 1. 1. 1. 1. 1. 1. 1.
      1. 1. 1. 1. 1. 1. 1. 1. 1. 1. 1. 1. 1. 1. 1. 1. 1. 1. 1. 1. 1. 1.
      1. 1. 1. 1. 1. 1. 1. 1. 1. 1. 1. 1. 1. 1. 1. 1. 1. 1. 1. 1. 1. 1.
      1. 1. 1. 1. 1. 1. 1. 1. 1. 1. 1. 1. 1. 1. 1. 1. 1. 1. 1. 1. 1. 1.
      1. 1. 1. 1. 1. 1. 1. 1. 1. 1. 1. 1. 1. 1. 1. 1. 1. 1. 1. 1. 1. 1.
      1. 1. 1. 1. 1. 1. 1. 1. 1. 1. 1. 1. 1. 1. 1. 1. 1. 1. 1. 1. 1. 1.
      1. 1. 1. 1. 1. 1. 1. 1. 1. 1. 1. 1. 1. 1. 1. 1. 1. 1. 1. 1. 1. 1.
      1. 1. 1. 1. 1. 1. 1. 1. 1. 1. 1. 1. 1. 1. 1. 1. 1. 1. 1. 1. 1. 1.
      1. 1. 1. 1. 1. 1. 1. 1. 1. 1. 1. 1. 1. 1. 1. 1. 1. 1. 1. 1. 1. 1.
      1. 1. 1. 1. 1. 1. 1. 1. 1. 1. 1. 1. 1. 1. 1. 1. 1. 1. 1. 1. 1. 1.
      1. 1. 1. 1. 1. 1. 1. 1. 1. 1. 1. 1. 1. 1. 1. 1. 1. 1. 1. 1. 1. 1.
      1. 1. 1. 1. 1. 1. 1. 1. 1. 1. 1. 1. 1. 1. 1. 1. 1. 1. 1. 1. 1. 1.
      1. 1. 1. 1. 1. 1. 1. 1. 1. 1. 1. 1. 1. 1. 1. 1. 1. 1. 1. 1. 1. 1.
      1. 1. 1. 1. 1. 1. 1. 1. 1. 1. 1. 1. 1. 1. 1. 1. 1. 1. 1. 1. 1. 1.
      1. 1. 1. 1. 1. 1. 1. 1. 1. 1. 1. 1. 1. 1. 1. 1. 1. 1. 1. 1. 1. 1.
      1. 1. 1. 1. 1. 1. 1. 1. 1. 1. 1. 1. 1. 1. 1. 1. 1. 1. 1. 1. 1. 1.
      1. 1. 1. 1. 1. 1. 1. 1. 1. 1. 255. 1. 1. 1. 1. 1. 1. 1. 1. 1. 1.
      1. 1. 1. 1. 1. 1. 1. 1. 1. 1. 1. 1. 1. 1. 1. 1. 1. 1. 1. 1. 1. 1.
      1. 1. 1. 1. 1. 1. 1. 1. 1. 1. 1. 1. 1. 1. 1. 1. 1. 255. 1. 1. 1.
      1. 1. 1. 1. 1. 1. 1. 1. 1. 1. 1. 1. 1. 1. 1. 1. 1. 1. 1. 1. 1. 1.
      1. 1. 1. 1. 1. 1. 1. 1. 1. 1. 1. 1. 1. 1. 1. 1. 1. 1. 1. 1. 1. 1.
      1. 1. 1. 1. 1. 1. 1. 1. 1. 1. 1. 1. 1. 1. 1. 1. 1. 1. 1. 1. 1. 1.
      1. 1. 1. 1. 1. 1. 1. 1. 1. 1. 1. 1. 1. 1. 1. 1. 1. 1. 1. 1. 1. 1.
      1. 1. 1. 1. 1. 1. 1. 255. 1. 1. 1. 1. 1. 1. 1. 1. 1. 1. 1. 1. 1.
      1. 1. 1. 1. 1. 1. 1. 1. 1. 1. 1. 1. 1. 1. 1. 1. 1. 1. 1. 1. 1. 1.
      1. 1. 1. 1. 1. 1. 1. 1. 1. 1. 1. 1. 1. 1. 255. 1. 1. 1. 1. 1. 1.
      1. 1. 1. 1. 1. 1. 1. 1. 1. 1. 1. 1. 1. 1. 1. 1. 1. 1. 1. 1. 1. 1.
      1. 1. 1. 1. 1. 1. 1. 1. 1. 1. 1. 1. 1. 1. 1. 1. 1. 1. 1. 1. 1.
      255. 1. 1. 1. 1. 1. 1. 1. 1. 1. 1. 1. 1. 1. 1. 1. 1. 1. 1. 1. 1.
      1. 1. 1. 1. 1. 1. 1. 1. 1. 1. 1. 1. 1. 1. 1. 1. 1. 1. 1. 1. 1. 1.
      1. 1. 1. 1. 1. 1. 1. 255. 1. 1. 1. 1. 1. 1. 1. 1. 1. 1. 1. 1. 1.
      1. 1. 1. 1. 1. 1. 1. 1. 1. 1. 1. 1. 1. 1. 1. 1. 1. 1. 1. 1. 1. 1.
      1. 1. 1. 1. 1. 1. 1. 1. 1. 1. 1. 1. 1. 255. 255. 1. 1. 1. 1. 1. 1.
      1. 1. 1. 1. 1. 1. 1. 1. 1. 1. 1. 1. 1. 1. 1. 1. 1. 1. 1. 1. 1. 1.
      1. 1. 1. 1. 1. 1. 1. 1. 1. 1. 1. 1. 1. 1. 1. 1. 1. 1. 1. 1. 255.
      1. 1. 1. 1. 1. 1. 1. 1. 1. 1. 1. 1. 1. 1. 1. 1. 1. 1. 1. 1. 1. 1.
      1. 1. 1. 1. 1. 1. 1. 1. 1. 1. 1. 1. 1. 1. 1. 1. 1. 1. 1. 1. 1. 1.
      1. 1. 1. 1. 1. 255. 1. 1. 1. 1. 1. 1. 1. 1. 1. 1. 1. 1. 1. 1. 1.
      1. 1. 1. 1. 1. 1. 1. 1. 1. 1. 1. 1. 1. 1. 1. 1. 1. 1. 1. 1. 1. 1.
      1. 1. 1. 1. 1. 1. 1. 1. 1. 1. 1. 1. 1. 1. 1. 1. 1. 1. 1. 1. 1. 1.
      1. 1. 1. 1. 1. 1. 1. 1. 1. 1. 1. 1. 1. 1. 1. 1. 1. 1. 1. 1. 1. 1.
      1. 1. 1. 1. 1. 1. 1. 1. 1. 1. 1. 1. 1. 1. 1. 1. 1. 1. 1. 255. 1.
      1. 1. 1. 1. 1. 1. 1. 1. 1. 1. 1. 1. 1. 1. 1. 1. 1. 1. 1. 1. 1. 1.
      1. 1. 1. 1. 1. 1. 1. 1. 1. 1. 1. 1. 1. 1. 1. 1. 1. 1. 1. 1. 1. 1.
      1. 1. 1. 1. 1. 1. 1. 1. 1. 1. 1. 1. 1. 1. 1. 1. 1. 1. 1. 1. 1. 1.
      1. 1. 1. 1. 1. 1. 1. 1. 1. 1. 1. 1. 1. 1. 1. 1. 1. 1. 1. 1. 1. 1.
      1. 1. 1. 1. 1. 1. 1. 1. 1. 1. 1. 1. 1. 1. 1. 1. 1. 1. 1. 1. 1. 1.
      1. 1. 1. 1. 1. 1. 1. 1. 1. 1. 1. 1. 1. 1. 1. 1. 1. 1. 1. 1. 1. 1.
      1. 1. 1. 1. 1. 1. 1. 1. 1. 1. 1. 1. 1. 1. 1. 1. 1. 1. 1. 1. 1. 1.
      1. 1. 1. 1. 1. 1. 1. 1. 1. 1. 1. 1. 1. 1. 1. 1. 1. 1. 1. 1. 1. 1.
      1. 1. 1. 1. 1. 1. 1. 1. 1. 1. 1. 1. 1. 1. 1. 1. 1. 1. 1. 1. 1. 1.
      255. 1. 1. 1. 1. 1. 1. 1. 1. 1. 1. 1. 1. 1. 1. 1. 1. 1. 1. 1. 1.
      1. 1. 1. 1. 1. 1. 1. 1. 1. 1. 1. 1. 1. 1. 1. 1. 1. 1. 1. 1. 1. 1.
      1. 1. 1. 1. 1. 1. 1. 1. 255. 1. 1. 1. 1. 1. 1. 1. 1. 1. 1. 1. 1.
      1. 1. 1. 1. 1. 1. 1. 1. 1. 1. 1. 1. 1. 1. 1. 1. 1. 1. 1. 1. 1. 1.
      1. 1. 1. 1. 1. 1. 1. 1. 1. 1. 1. 1. 1. 1. 1. 1. 1. 1. 1. 1. 1. 1.
      1. 1. 1. 1. 1. 1. 1. 1. 1. 1. 1. 1. 1. 1. 1. 1. 1. 1. 1. 1. 1. 1.
      1. 1. 1. 1. 1. 1. 1. 1. 1. 1. 1. 1. 1. 1. 1. 1. 1. 1. 1. 1. 1.
      255. 1. 1. 1. 1. 1. 1. 1. 1. 1. 1. 1. 1. 1. 1. 1. 1. 1. 1. 1. 1.
      1. 1. 1. 1. 1. 1. 1. 1. 1. 1. 1. 1. 1. 1. 1. 1. 1. 1. 1. 1. 1. 1.
      1. 1. 1. 1. 1. 1. 1. 255. 1. 1. 1. 1. 1. 1. 1. 1. 1. 1. 1. 1. 1.
      1. 1. 1. 1. 1. 1. 1. 1. 1. 1. 1. 1. 1. 1. 1. 1. 1. 1. 1. 1. 1. 1.
      1. 1. 1. 1. 1. 1. 1. 1. 1. 1. 1. 1. 1. 1. 255. 1. 1. 1. 1. 1. 1.
      1. 1. 1. 1. 1. 1. 1. 1. 1. 1. 1. 1. 1. 1. 1. 1. 1. 1. 1. 1. 1. 1.
      1. 1. 1. 1. 1. 1. 1. 1. 1. 1. 1. 1. 1. 1. 1. 1. 1. 1. 1. 1. 255.
      255. 1. 1. 1. 1. 1. 1. 1. 1. 1. 1. 1. 1. 1. 1. 1. 1. 1. 1. 1. 1.
      1. 1. 1. 1. 1. 1. 1. 1. 1. 1. 1. 1. 1. 1. 1. 1. 1. 1. 1. 1. 1. 1.
      1. 1. 1. 1. 1. 255. 255. 1. 1. 1. 1. 1. 1. 1. 1. 1. 1. 1. 1. 1. 1.
      1. 1. 1. 1. 1. 1. 1. 1. 1. 1. 1. 1. 1. 1. 1. 1. 1. 1. 1. 1. 1. 1.
      1. 1. 1. 1. 255. 255. 255. 255. 255. 255. 255. 255. 255. 1. 1. 1.
      1. 1. 1. 1. 1. 1. 1. 1. 1. 1. 1. 1. 1. 1. 1. 1. 1. 1. 1. 1. 1. 1.
      1. 1. 1. 1. 1. 1. 1. 1. 1. 1. 1. 1. 1. 1. 1. 1. 1. 1. 1. 1. 1. 1.
      1. 1. 1. 1. 1. 1. 1. 1. 1. 1. 1. 1. 1. 1. 1. 1. 1. 1. 1. 1. 1. 1.
      1. 1. 1. 1. 1. 1. 1. 1. 1. 1. 1. 1. 1. 1. 1. 1. 1. 1. 1. 1. 1. 1.
      1. 1. 1. 1. 1. 1. 1. 1. 1. 1. 1. 1. 1. 1. 1. 1. 1. 1. 1. 1. 1. 1.
      1. 1. 1. 1. 1. 1. 1. 1. 1. 1. 1. 1. 1. 1. 1. 1. 1. 1. 1. 1. 1. 1.
      1. 1. 1. 1. 1. 1. 1. 1. 1. 1. 1. 1. 1. 1. 1. 1. 1. 1. 1. 1. 1. 1.
      1. 1. 1. 1. 1. 1. 1. 1. 1. 1. 1. 1. 1. 1. 1. 1. 1. 1. 1. 1. 1. 1.
      1. 1. 1. 1. 1. 1. 1. 1. 1. 1. 1. 1. 1. 1. 1. 1. 1. 1. 1. 1. 1. 1.
      1. 1. 1. 1. 1. 1. 1. 1. 1. 1. 1. 1. 1. 1. 1. 1. 1. 1. 1. 1. 1. 1.
      1. 1. 1. 1. 1. 1. 1. 1. 1. 1. 1. 1. 1. 1. 1. 1. 1. 1. 1. 1. 1. 1.
      1. 1. 1. 1. 1. 1. 1. 1. 1. 1. 1. 1. 1. 1. 1. 1. 1. 1. 1. 1. 1. 1.
      1. 1. 1. 1. 1. 1. 1. 1. 1. 1. 1. 1. 1. 1. 1. 1. 1. 1. 1. 1. 1. 1.
      1. 1. 1. 1. 1. 1. 1. 1. 1. 1. 1. 1. 1. 1. 1. 1. 1. 1. 1. 1. 1. 1.
      1. 1. 1. 1. 1. 1. 1. 1. 1. 1. 1. 1. 1. 1. 1. 1. 1. 1. 1. 1. 1. 1.
      1. 1. 1. 1. 1. 1. 1. 1. 1. 1. 1. 1. 1. 1. 1. 1. 1. 1. 1. 1. 1. 1.
      1. 1. 1. 1. 1. 1. 1. 1. 1. 1. 1. 1. 1. 1. 1. 1. 1. 1. 1. 1. 1. 1.
      1. 1. 1. 1. 1. 1. 1. 1. 1. 1. 1. 1. 1. 1. 1. 1. 1. 1. 1. 1. 1. 1.
      1. 1. 1. 1. 1. 1. 1. 1. 1. 1. 1. 1. 1. 1. 1. 1. 1. 1. 1. 1. 1. 1.
      1. 1. 1. 1. 1. 1. 1. 1. 1. 1. 1. 1. 1. 1. 1. 1. 1. 1. 1. 1. 1. 1.
      1. 1. 1. 1. 1. 1. 1. 1. 1. 1. 1. 1. 1. 1. 1. 1. 1. 1. 1. 1. 1. 1.
      1. 1. 1. 1. 1. 1. 1. 1. 1. 1. 1. 1. 1. 1. 1. 1. 1. 1. 1. 1. 1. 1.
      1. 1. 1. 1. 1. 1. 1. 1. 1. 1. 1. 1. 1. 1. 1. 1. 1. 1. 1. 1. 1. 1.
      1. 1. 1. 1. 1. 1. 1. 1. 1. 1. 1. 1. 1. 1. 1. 1. 1. 1. 1. 1. 1. 1.
      1. 1. 1. 1. 1. 1. 1. 1. 1. 1. 1. 1. 1. 1. 1. 1. 1. 1. 1. 1. 1. 1.
      1. 1. 1. 1. 1. 1. 1. 1. 1. 1. 1. 1. 1. 1. 1. 1. 1. 1. 1. 1. 1. 1.
      1. 1. 1. 1. 1. 1. 1. 1. 1. 1. 1. 1. 1. 1. 1. 1. 1. 1. 1. 1. 1. 1.
      1. 1. 1. 1. 1. 1. 1. 1. 1. 1. 1. 1. 1. 1. 1. 1. 1. 1. 1. 1. 1. 1.
      1. 1. 1. 1. 1. 1. 1. 1. 1. 1. 1. 1. 1. 1. 1. 1. 1. 1. 1. 1. 1. 1.
      1. 1. 1. 1. 1. 1. 1. 1. 1. 1. 1. 1. 1. 1. 1. 1. 1. 1. 1. 1. 1. 1.
      1. 1. 1. 1. 1. 1. 1. 1. 1. 1. 1. 1. 1. 1. 1. 1. 1. 1. 1. 1. 1. 1.
      1. 1. 1. 1. 1. 1. 1. 1. 1. 1. 1. 1. 1. 1. 1. 1. 1. 1. 1. 1. 1. 1.
      1. 1. 1. 1. 1. 1. 1. 1. 1. 1. 1. 1. 1. 1. 1. 1. 1. 1. 1. 1. 1. 1.
      1. 1. 1. 1. 1. 1. 1. 1. 1. 1. 1. 1. 1. 1. 1. 1. 1. 1. 1. 1. 1. 1.
      1. 1. 1. 1. 1. 1. 1. 1. 1. 1. 1. 1. 1. 1. 1. 1. 1. 1. 1. 1. 1. 1.
      1. 1. 1. 1. 1. 1. 1. 1. 1. 1. 1. 1. 1. 1. 1. 1. 1. 1. 1. 1. 1. 1.
      1. 1. 1. 1. 1. 1. 1. 1. 1. 1. 1. 1. 1. 1. 1. 1. 1. 1. 1. 1. 1. 1.
      1. 1. 1. 1. 1. 1. 1. 1. 1. 1. 1. 1. 1. 1. 1. 1. 1. 1. 1. 1. 1. 1.
      1. 1. 1. 1. 1. 1. 1. 1. 1. 1. 1. 1. 1. 1. 1. 1. 1. 1. 1. 1. 1. 1.
      1. 1. 1. 1. 1. 1. 1. 1. 1. 1. 1. 1. 1. 1. 1. 1. 1. 1. 1. 1. 1. 1.
      1. 1. 1. 1. 1. 1. 1. 1. 1. 1. 1. 1. 1. 1. 1. 1. 1. 1. 1. 1. 1. 1.
      1. 1. 1. 1. 1. 1. 1. 1. 1. 1. 1. 1. 1. 1. 1. 1. 1. 1.</_>
    <_>
      1. 1. 1. 1. 1. 1. 1. 1. 1. 1. 1. 1. 1. 1. 1. 1. 1. 1. 1. 1. 1. 1.
      1. 1. 1. 1. 1. 1. 1. 1. 1. 1. 1. 1. 1. 1. 1. 1. 1. 1. 1. 1. 1. 1.
      1. 1. 1. 1. 1. 1. 1. 1. 1. 1. 1. 1. 1. 1. 1. 1. 1. 1. 1. 1. 1. 1.
      1. 1. 1. 1. 1. 1. 1. 1. 1. 1. 1. 1. 1. 1. 1. 1. 1. 1. 1. 1. 1. 1.
      1. 1. 1. 1. 1. 1. 1. 1. 1. 1. 1. 1. 1. 1. 1. 1. 1. 1. 1. 1. 1. 1.
      1. 1. 1. 1. 1. 1. 1. 1. 1. 1. 1. 1. 1. 1. 1. 1. 1. 1. 1. 1. 1. 1.
      1. 1. 1. 1. 1. 1. 1. 1. 1. 1. 1. 1. 1. 1. 1. 1. 1. 1. 1. 1. 1. 1.
      1. 1. 1. 1. 1. 1. 1. 1. 1. 1. 1. 1. 1. 1. 1. 1. 1. 1. 1. 1. 1. 1.
      1. 1. 1. 1. 1. 1. 1. 1. 1. 1. 1. 1. 1. 1. 1. 1. 1. 1. 1. 1. 1. 1.
      1. 1. 1. 1. 1. 1. 1. 1. 1. 1. 1. 1. 1. 1. 1. 1. 1. 1. 1. 1. 1. 1.
      1. 1. 1. 1. 1. 1. 1. 1. 1. 1. 1. 1. 1. 1. 1. 1. 1. 1. 1. 1. 1. 1.
      1. 1. 1. 1. 1. 1. 1. 1. 1. 1. 1. 1. 1. 1. 1. 1. 1. 1. 1. 1. 1. 1.
      1. 1. 1. 1. 1. 1. 1. 1. 1. 1. 1. 1. 1. 1. 1. 1. 1. 1. 1. 1. 1. 1.
      1. 1. 1. 1. 1. 1. 1. 1. 1. 1. 1. 1. 1. 1. 1. 1. 1. 1. 1. 1. 1. 1.
      1. 1. 1. 1. 1. 1. 1. 1. 1. 1. 1. 1. 1. 1. 1. 1. 1. 1. 1. 1. 1. 1.
      1. 1. 1. 1. 1. 1. 1. 1. 1. 1. 1. 1. 1. 1. 1. 1. 1. 1. 1. 1. 1. 1.
      1. 1. 1. 1. 1. 1. 1. 1. 1. 1. 1. 1. 1. 1. 1. 1. 1. 1. 1. 1. 1. 1.
      1. 1. 1. 1. 1. 1. 1. 1. 1. 1. 1. 1. 1. 1. 1. 1. 1. 1. 1. 1. 1. 1.
      1. 1. 1. 1. 1. 1. 1. 1. 1. 1. 1. 1. 1. 1. 1. 1. 1. 1. 1. 1. 1. 1.
      1. 1. 1. 1. 1. 1. 1. 1. 1. 1. 1. 1. 1. 1. 1. 1. 1. 1. 1. 1. 1. 1.
      1. 1. 1. 1. 1. 1. 1. 1. 1. 1. 1. 1. 1. 1. 1. 1. 1. 1. 1. 1. 1. 1.
      1. 1. 1. 1. 1. 1. 1. 1. 1. 1. 1. 1. 1. 1. 1. 1. 1. 1. 1. 1. 1. 1.
      1. 1. 1. 1. 1. 1. 1. 1. 1. 1. 1. 1. 1. 1. 1. 1. 1. 1. 1. 1. 1. 1.
      1. 1. 1. 1. 1. 1. 1. 1. 1. 1. 1. 1. 1. 1. 1. 1. 1. 255. 1. 1. 1.
      1. 1. 1. 1. 1. 1. 1. 1. 1. 1. 1. 1. 1. 1. 1. 1. 1. 1. 1. 1. 1. 1.
      1. 1. 1. 1. 1. 1. 1. 1. 1. 1. 1. 1. 1. 1. 1. 1. 1. 1. 1. 1. 1. 1.
      1. 1. 1. 1. 1. 1. 1. 1. 1. 1. 1. 1. 1. 1. 1. 1. 1. 1. 1. 1. 1. 1.
      1. 1. 1. 1. 1. 1. 1. 1. 1. 1. 1. 1. 1. 1. 1. 1. 1. 1. 1. 1. 1. 1.
      1. 1. 1. 1. 1. 1. 1. 1. 255. 1. 1. 1. 1. 1. 1. 1. 1. 1. 1. 1. 1.
      1. 1. 1. 1. 1. 1. 1. 1. 1. 1. 1. 1. 1. 1. 1. 1. 1. 1. 1. 1. 1. 1.
      1. 1. 1. 1. 1. 1. 1. 1. 1. 1. 1. 1. 1. 1. 1. 1. 1. 1. 1. 1. 1. 1.
      1. 1. 1. 1. 1. 1. 1. 1. 1. 1. 1. 1. 1. 1. 1. 1. 1. 1. 1. 1. 1. 1.
      1. 1. 1. 1. 1. 1. 1. 1. 1. 1. 1. 1. 1. 1. 1. 1. 1. 1. 1. 1. 1.
      255. 1. 1. 1. 1. 1. 1. 1. 1. 1. 1. 1. 1. 1. 1. 1. 1. 1. 1. 1. 1.
      1. 1. 1. 1. 1. 1. 1. 1. 1. 1. 1. 1. 1. 1. 1. 1. 1. 1. 1. 1. 1. 1.
      1. 1. 1. 1. 1. 1. 255. 1. 1. 1. 1. 1. 1. 1. 1. 1. 1. 1. 1. 1. 1.
      1. 1. 1. 1. 1. 1. 1. 1. 1. 1. 1. 1. 1. 1. 1. 1. 1. 1. 1. 1. 1. 1.
      1. 1. 1. 1. 1. 1. 1. 1. 1. 1. 1. 1. 1. 255. 1. 1. 1. 1. 1. 1. 1.
      1. 1. 1. 1. 1. 1. 1. 1. 1. 1. 1. 1. 1. 1. 1. 1. 1. 1. 1. 1. 1. 1.
      1. 1. 1. 1. 1. 1. 1. 1. 1. 1. 1. 1. 1. 1. 1. 1. 1. 1. 1. 1. 255.
      1. 1. 1. 1. 1. 1. 1. 1. 1. 1. 1. 1. 1. 1. 1. 1. 1. 1. 1. 1. 1. 1.
      1. 1. 1. 1. 1. 1. 1. 1. 1. 1. 1. 1. 1. 1. 1. 1. 1. 1. 1. 1. 1. 1.
      1. 1. 1. 1. 1. 255. 1. 1. 1. 1. 1. 1. 1. 1. 1. 1. 1. 1. 1. 1. 1.
      1. 1. 1. 1. 1. 1. 1. 1. 1. 1. 1. 1. 1. 1. 1. 1. 1. 1. 1. 1. 1. 1.
      1. 1. 1. 1. 1. 1. 1. 1. 1. 1. 1. 1. 1. 255. 1. 1. 1. 1. 1. 1. 1.
      1. 1. 1. 1. 1. 1. 1. 1. 1. 1. 1. 1. 1. 1. 1. 1. 1. 1. 1. 1. 1. 1.
      1. 1. 1. 1. 1. 1. 1. 1. 1. 1. 1. 1. 1. 1. 1. 1. 1. 1. 1. 255. 1.
      1. 1. 1. 1. 1. 1. 1. 1. 1. 1. 1. 1. 1. 1. 1. 1. 1. 1. 1. 1. 1. 1.
      1. 1. 1. 1. 1. 1. 1. 1. 1. 1. 1. 1. 1. 1. 1. 1. 1. 1. 1. 1. 1. 1.
      1. 1. 1. 1. 255. 255. 1. 1. 1. 1. 1. 1. 1. 1. 1. 1. 1. 1. 1. 1. 1.
      1. 1. 1. 1. 1. 1. 1. 1. 1. 1. 1. 1. 1. 1. 1. 1. 1. 1. 1. 1. 1. 1.
      1. 1. 1. 1. 1. 1. 1. 1. 1. 1. 1. 1. 1. 1. 1. 1. 1. 1. 1. 1. 1. 1.
      1. 1. 1. 1. 1. 1. 1. 1. 1. 1. 1. 1. 1. 1. 1. 1. 1. 1. 1. 1. 1. 1.
      1. 1. 1. 1. 1. 1. 1. 1. 1. 1. 1. 1. 1. 1. 1. 1. 1. 255. 1. 1. 1.
      1. 1. 1. 1. 1. 1. 1. 1. 1. 1. 1. 1. 1. 1. 1. 1. 1. 1. 1. 1. 1. 1.
      1. 1. 1. 1. 1. 1. 1. 1. 1. 1. 1. 1. 1. 1. 1. 1. 1. 1. 1. 1. 1. 1.
      1. 1. 255. 1. 1. 1. 1. 1. 1. 1. 1. 1. 1. 1. 1. 1. 1. 1. 1. 1. 1.
      1. 1. 1. 1. 1. 1. 1. 1. 1. 1. 1. 1. 1. 1. 1. 1. 1. 1. 1. 1. 1. 1.
      1. 1. 1. 1. 1. 1. 1. 1. 1. 1. 255. 1. 1. 1. 1. 1. 1. 1. 1. 1. 1.
      1. 1. 1. 1. 1. 1. 1. 1. 1. 1. 1. 1. 1. 1. 1. 1. 1. 1. 1. 1. 1. 1.
      1. 1. 1. 1. 1. 1. 1. 1. 1. 1. 1. 1. 1. 1. 1. 1. 1. 255. 1. 1. 1.
      1. 1. 1. 1. 1. 1. 1. 1. 1. 1. 1. 1. 1. 1. 1. 1. 1. 1. 1. 1. 1. 1.
      1. 1. 1. 1. 1. 1. 1. 1. 1. 1. 1. 1. 1. 1. 1. 1. 1. 1. 1. 1. 1. 1.
      1. 1. 255. 1. 1. 1. 1. 1. 1. 1. 1. 1. 1. 1. 1. 1. 1. 1. 1. 1. 1.
      1. 1. 1. 1. 1. 1. 1. 1. 1. 1. 1. 1. 1. 1. 1. 1. 1. 1. 1. 1. 1. 1.
      1. 1. 1. 1. 1. 1. 1. 1. 1. 255. 255. 1. 1. 1. 1. 1. 1. 1. 1. 1. 1.
      1. 1. 1. 1. 1. 1. 1. 1. 1. 1. 1. 1. 1. 1. 1. 1. 1. 1. 1. 1. 1. 1.
      1. 1. 1. 1. 1. 1. 1. 1. 1. 1. 1. 1. 1. 1. 1. 1. 1. 255. 255. 255.
      1. 1. 255. 255. 255. 255. 1. 1. 1. 1. 1. 1. 1. 1. 1. 1. 1. 1. 1.
      1. 1. 1. 1. 1. 1. 1. 1. 1. 1. 1. 1. 1. 1. 1. 1. 1. 1. 1. 1. 1. 1.
      1. 1. 1. 1. 1. 1. 1. 255. 255. 255. 255. 1. 1. 1. 1. 1. 1. 1. 1.
      1. 1. 1. 1. 1. 1. 1. 1. 1. 1. 1. 1. 1. 1. 1. 1. 1. 1. 1. 1. 1. 1.
      1. 1. 1. 1. 1. 1. 1. 1. 1. 1. 1. 1. 1. 1. 1. 1. 1. 1. 1. 1. 1. 1.
      1. 1. 1. 1. 1. 1. 1. 1. 1. 1. 1. 1. 1. 1. 1. 1. 1. 1. 1. 1. 1. 1.
      1. 1. 1. 1. 1. 1. 1. 1. 1. 1. 1. 1. 1. 1. 1. 1. 1. 1. 1. 1. 1. 1.
      1. 1. 1. 1. 1. 1. 1. 1. 1. 1. 1. 1. 1. 1. 1. 1. 1. 1. 1. 1. 1. 1.
      1. 1. 1. 1. 1. 1. 1. 1. 1. 1. 1. 1. 1. 1. 1. 1. 1. 1. 1. 1. 1. 1.
      1. 1. 1. 1. 1. 1. 1. 1. 1. 1. 1. 1. 1. 1. 1. 1. 1. 1. 1. 1. 1. 1.
      1. 1. 1. 1. 1. 1. 1. 1. 1. 1. 1. 1. 1. 1. 1. 1. 1. 1. 1. 1. 1. 1.
      1. 1. 1. 1. 1. 1. 1. 1. 1. 1. 1. 1. 1. 1. 1. 1. 1. 1. 1. 1. 1. 1.
      1. 1. 1. 1. 1. 1. 1. 1. 1. 1. 1. 1. 1. 1. 1. 1. 1. 1. 1. 1. 1. 1.
      1. 1. 1. 1. 1. 1. 1. 1. 1. 1. 1. 1. 1. 1. 1. 1. 1. 1. 1. 1. 1. 1.
      1. 1. 1. 1. 1. 1. 1. 1. 1. 1. 1. 1. 1. 1. 1. 1. 1. 1. 1. 1. 1. 1.
      1. 1. 1. 1. 1. 1. 1. 1. 1. 1. 1. 1. 1. 1. 1. 1. 1. 1. 1. 1. 1. 1.
      1. 1. 1. 1. 1. 1. 1. 1. 1. 1. 1. 1. 1. 1. 1. 1. 1. 1. 1. 1. 1. 1.
      1. 1. 1. 1. 1. 1. 1. 1. 1. 1. 1. 1. 1. 1. 1. 1. 1. 1. 1. 1. 1. 1.
      1. 1. 1. 1. 1. 1. 1. 1. 1. 1. 1. 1. 1. 1. 1. 1. 1. 1. 1. 1. 1. 1.
      1. 1. 1. 1. 1. 1. 1. 1. 1. 1. 1. 1. 1. 1. 1. 1. 1. 1. 1. 1. 1. 1.
      1. 1. 1. 1. 1. 1. 1. 1. 1. 1. 1. 1. 1. 1. 1. 1. 1. 1. 1. 1. 1. 1.
      1. 1. 1. 1. 1. 1. 1. 1. 1. 1. 1. 1. 1. 1. 1. 1. 1. 1. 1. 1. 1. 1.
      1. 1. 1. 1. 1. 1. 1. 1. 1. 1. 1. 1. 1. 1. 1. 1. 1. 1. 1. 1. 1. 1.
      1. 1. 1. 1. 1. 1. 1. 1. 1. 1. 1. 1. 1. 1. 1. 1. 1. 1. 1. 1. 1. 1.
      1. 1. 1. 1. 1. 1. 1. 1. 1. 1. 1. 1. 1. 1. 1. 1. 1. 1. 1. 1. 1. 1.
      1. 1. 1. 1. 1. 1. 1. 1. 1. 1. 1. 1. 1. 1. 1. 1. 1. 1. 1. 1. 1. 1.
      1. 1. 1. 1. 1. 1. 1. 1. 1. 1. 1. 1. 1. 1. 1. 1. 1. 1. 1. 1. 1. 1.
      1. 1. 1. 1. 1. 1. 1. 1. 1. 1. 1. 1. 1. 1. 1. 1. 1. 1. 1. 1. 1. 1.
      1. 1. 1. 1. 1. 1. 1. 1. 1. 1. 1. 1. 1. 1. 1. 1. 1. 1. 1. 1. 1. 1.
      1. 1. 1. 1. 1. 1. 1. 1. 1. 1. 1. 1. 1. 1. 1. 1. 1. 1. 1. 1. 1. 1.
      1. 1. 1. 1. 1. 1. 1. 1. 1. 1. 1. 1. 1. 1. 1. 1. 1. 1. 1. 1. 1. 1.
      1. 1. 1. 1. 1. 1. 1. 1. 1. 1. 1. 1. 1. 1. 1. 1. 1. 1. 1. 1. 1. 1.
      1. 1. 1. 1. 1. 1. 1. 1. 1. 1. 1. 1. 1. 1. 1. 1. 1. 1. 1. 1. 1. 1.
      1. 1. 1. 1. 1. 1. 1. 1. 1. 1. 1. 1. 1. 1. 1. 1. 1. 1. 1. 1. 1. 1.
      1. 1. 1. 1. 1. 1. 1. 1. 1. 1. 1. 1. 1. 1. 1. 1. 1. 1. 1. 1. 1. 1.
      1. 1. 1. 1. 1. 1. 1. 1. 1. 1. 1. 1. 1. 1. 1. 1. 1. 1. 1. 1. 1. 1.
      1. 1. 1. 1. 1. 1. 1. 1. 1. 1. 1. 1. 1. 1. 1. 1. 1. 1. 1. 1. 1. 1.
      1. 1. 1. 1. 1. 1. 1. 1. 1. 1. 1. 1. 1. 1. 1. 1. 1. 1. 1. 1. 1. 1.
      1. 1. 1. 1. 1. 1. 1. 1. 1. 1. 1. 1. 1. 1. 1. 1. 1. 1. 1. 1. 1. 1.
      1. 1. 1. 1. 1. 1. 1. 1. 1. 1. 1. 1. 1. 1. 1. 1. 1. 1. 1. 1. 1. 1.
      1. 1. 1. 1. 1. 1. 1. 1. 1. 1. 1. 1. 1. 1. 1. 1. 1. 1. 1. 1. 1. 1.
      1. 1. 1. 1. 1. 1. 1. 1. 1. 1. 1. 1. 1. 1. 1. 1. 1. 1. 1. 1. 1. 1.
      1. 1. 1. 1. 1. 1. 1. 1. 1. 1. 1. 1. 1. 1. 1. 1. 1. 1. 1. 1. 1. 1.
      1. 1. 1. 1. 1. 1. 1. 1. 1. 1. 1. 1. 1. 1. 1. 1. 1. 1. 1. 1. 1. 1.
      1. 1. 1. 1. 1. 1. 1. 1. 1. 1. 1. 1. 1. 1. 1. 1. 1. 1. 1. 1. 1. 1.
      1. 1. 1. 1. 1. 1. 1. 1. 1. 1. 1. 1. 1. 1. 1. 1. 1. 1. 1. 1. 1. 1.
      1. 1. 1. 1. 1. 1. 1. 1. 1. 1. 1. 1. 1. 1. 1. 1. 1.</_>
    <_>
      1. 1. 1. 1. 1. 1. 1. 1. 1. 1. 1. 1. 1. 1. 1. 1. 1. 1. 1. 1. 1. 1.
      1. 1. 1. 1. 1. 1. 1. 1. 1. 1. 1. 1. 1. 1. 1. 1. 1. 1. 1. 1. 1. 1.
      1. 1. 1. 1. 1. 1. 1. 1. 1. 1. 1. 1. 1. 1. 1. 1. 1. 1. 1. 1. 1. 1.
      1. 1. 1. 1. 1. 1. 1. 1. 1. 1. 1. 1. 1. 1. 1. 1. 1. 1. 1. 1. 1. 1.
      1. 1. 1. 1. 1. 1. 1. 1. 1. 1. 1. 1. 1. 1. 1. 1. 1. 1. 1. 1. 1. 1.
      1. 1. 1. 1. 1. 1. 1. 1. 1. 1. 1. 1. 1. 1. 1. 1. 1. 1. 1. 1. 1. 1.
      1. 1. 1. 1. 1. 1. 1. 1. 1. 1. 1. 1. 1. 1. 1. 1. 1. 1. 1. 1. 1. 1.
      1. 1. 1. 1. 1. 1. 1. 1. 1. 1. 1. 1. 1. 1. 1. 1. 1. 1. 1. 1. 1. 1.
      1. 1. 1. 1. 1. 1. 1. 1. 1. 1. 1. 1. 1. 1. 1. 1. 1. 1. 1. 1. 1. 1.
      1. 1. 1. 1. 1. 1. 1. 1. 1. 1. 1. 1. 1. 1. 1. 1. 1. 1. 1. 1. 1. 1.
      1. 1. 1. 1. 1. 1. 1. 1. 1. 1. 1. 1. 1. 1. 1. 1. 1. 1. 1. 1. 1. 1.
      1. 1. 1. 1. 1. 1. 1. 1. 1. 1. 1. 1. 1. 1. 1. 1. 1. 1. 1. 1. 1. 1.
      1. 1. 1. 1. 1. 1. 1. 1. 1. 1. 1. 1. 1. 1. 1. 1. 1. 1. 1. 1. 1. 1.
      1. 1. 1. 1. 1. 1. 1. 1. 1. 1. 1. 1. 1. 1. 1. 1. 1. 1. 1. 1. 1. 1.
      1. 1. 1. 1. 1. 1. 1. 1. 1. 1. 1. 1. 1. 1. 1. 1. 1. 1. 1. 1. 1. 1.
      1. 1. 1. 1. 1. 1. 1. 1. 1. 1. 1. 1. 1. 1. 1. 1. 1. 1. 1. 1. 1. 1.
      1. 1. 1. 1. 1. 1. 1. 1. 1. 1. 1. 1. 1. 1. 1. 1. 1. 1. 1. 1. 1. 1.
      1. 1. 1. 1. 1. 1. 1. 1. 1. 1. 1. 1. 1. 1. 1. 1. 1. 1. 1. 1. 1. 1.
      1. 1. 1. 1. 1. 1. 1. 1. 1. 1. 1. 1. 1. 1. 1. 1. 1. 1. 1. 1. 1. 1.
      1. 1. 1. 1. 1. 1. 1. 1. 1. 1. 255. 1. 1. 1. 1. 1. 1. 1. 1. 1. 1.
      1. 1. 1. 1. 1. 1. 1. 1. 1. 1. 1. 1. 1. 1. 1. 1. 1. 1. 1. 1. 1. 1.
      1. 1. 1. 1. 1. 1. 1. 1. 1. 1. 1. 1. 1. 1. 1. 1. 1. 255. 1. 1. 1.
      1. 1. 1. 1. 1. 1. 1. 1. 1. 1. 1. 1. 1. 1. 1. 1. 1. 1. 1. 1. 1. 1.
      1. 1. 1. 1. 1. 1. 1. 1. 1. 1. 1. 1. 1. 1. 1. 1. 1. 1. 1. 1. 1. 1.
      1. 1. 1. 1. 1. 1. 1. 1. 1. 1. 1. 1. 1. 1. 1. 1. 1. 1. 1. 1. 1. 1.
      1. 1. 1. 1. 1. 1. 1. 1. 1. 1. 1. 1. 1. 1. 1. 1. 1. 1. 1. 1. 1. 1.
      1. 1. 1. 1. 1. 1. 1. 1. 255. 1. 1. 1. 1. 1. 1. 1. 1. 1. 1. 1. 1.
      1. 1. 1. 1. 1. 1. 1. 1. 1. 1. 1. 1. 1. 1. 1. 1. 1. 1. 1. 1. 1. 1.
      1. 1. 1. 1. 1. 1. 1. 1. 1. 1. 1. 1. 1. 1. 1. 255. 1. 1. 1. 1. 1.
      1. 1. 1. 1. 1. 1. 1. 1. 1. 1. 1. 1. 1. 1. 1. 1. 1. 1. 1. 1. 1. 1.
      1. 1. 1. 1. 1. 1. 1. 1. 1. 1. 1. 1. 1. 1. 1. 1. 1. 1. 1. 1. 1. 1.
      255. 1. 1. 1. 1. 1. 1. 1. 1. 1. 1. 1. 1. 1. 1. 1. 1. 1. 1. 1. 1.
      1. 1. 1. 1. 1. 1. 1. 1. 1. 1. 1. 1. 1. 1. 1. 1. 1. 1. 1. 1. 1. 1.
      1. 1. 1. 1. 1. 1. 1. 255. 1. 1. 1. 1. 1. 1. 1. 1. 1. 1. 1. 1. 1.
      1. 1. 1. 1. 1. 1. 1. 1. 1. 1. 1. 1. 1. 1. 1. 1. 1. 1. 1. 1. 1. 1.
      1. 1. 1. 1. 1. 1. 1. 1. 1. 1. 1. 1. 1. 1. 255. 1. 1. 1. 1. 1. 1.
      1. 1. 1. 1. 1. 1. 1. 1. 1. 1. 1. 1. 1. 1. 1. 1. 1. 1. 1. 1. 1. 1.
      1. 1. 1. 1. 1. 1. 1. 1. 1. 1. 1. 1. 1. 1. 1. 1. 1. 1. 1. 1. 1.
      255. 1. 1. 1. 1. 1. 1. 1. 1. 1. 1. 1. 1. 1. 1. 1. 1. 1. 1. 1. 1.
      1. 1. 1. 1. 1. 1. 1. 1. 1. 1. 1. 1. 1. 1. 1. 1. 1. 1. 1. 1. 1. 1.
      1. 1. 1. 1. 1. 1. 1. 255. 1. 1. 1. 1. 1. 1. 1. 1. 1. 1. 1. 1. 1.
      1. 1. 1. 1. 1. 1. 1. 1. 1. 1. 1. 1. 1. 1. 1. 1. 1. 1. 1. 1. 1. 1.
      1. 1. 1. 1. 1. 1. 1. 1. 1. 1. 1. 1. 1. 1. 255. 1. 1. 1. 1. 1. 1.
      1. 1. 1. 1. 1. 1. 1. 1. 1. 1. 1. 1. 1. 1. 1. 1. 1. 1. 1. 1. 1. 1.
      1. 1. 1. 1. 1. 1. 1. 1. 1. 1. 1. 1. 1. 1. 1. 1. 1. 1. 1. 1. 1.
      255. 1. 1. 1. 1. 1. 1. 1. 1. 1. 1. 1. 1. 1. 1. 1. 1. 1. 1. 1. 1.
      1. 1. 1. 1. 1. 1. 1. 1. 1. 1. 1. 1. 1. 1. 1. 1. 1. 1. 1. 1. 1. 1.
      1. 1. 1. 1. 1. 1. 1. 255. 1. 1. 1. 1. 1. 1. 1. 1. 1. 1. 1. 1. 1.
      1. 1. 1. 1. 1. 1. 1. 1. 1. 1. 1. 1. 1. 1. 1. 1. 1. 1. 1. 1. 1. 1.
      1. 1. 1. 1. 1. 1. 1. 1. 1. 1. 1. 1. 1. 1. 255. 1. 1. 1. 1. 1. 1.
      1. 1. 1. 1. 1. 1. 1. 1. 1. 1. 1. 1. 1. 1. 1. 1. 1. 1. 1. 1. 1. 1.
      1. 1. 1. 1. 1. 1. 1. 1. 1. 1. 1. 1. 1. 1. 1. 1. 1. 1. 1. 1. 1.
      255. 1. 1. 1. 1. 1. 1. 1. 1. 1. 1. 1. 1. 1. 1. 1. 1. 1. 1. 1. 1.
      1. 1. 1. 1. 1. 1. 1. 1. 1. 1. 1. 1. 1. 1. 1. 1. 1. 1. 1. 1. 1. 1.
      1. 1. 1. 1. 1. 1. 1. 255. 1. 1. 1. 1. 1. 1. 1. 1. 1. 1. 1. 1. 1.
      1. 1. 1. 1. 1. 1. 1. 1. 1. 1. 1. 1. 1. 1. 1. 1. 1. 1. 1. 1. 1. 1.
      1. 1. 1. 1. 1. 1. 1. 1. 1. 1. 1. 1. 1. 1. 255. 1. 1. 1. 1. 1. 1.
      1. 1. 1. 1. 1. 1. 1. 1. 1. 1. 1. 1. 1. 1. 1. 1. 1. 1. 1. 1. 1. 1.
      1. 1. 1. 1. 1. 1. 1. 1. 1. 1. 1. 1. 1. 1. 1. 1. 1. 1. 1. 1. 1.
      255. 1. 1. 1. 1. 1. 1. 1. 1. 1. 1. 1. 1. 1. 1. 1. 1. 1. 1. 1. 1.
      1. 1. 1. 1. 1. 1. 1. 1. 1. 1. 1. 1. 1. 1. 1. 1. 1. 1. 1. 1. 1. 1.
      1. 1. 1. 1. 1. 1. 255. 1. 1. 1. 1. 1. 1. 1. 1. 1. 1. 1. 1. 1. 1.
      1. 1. 1. 1. 1. 1. 1. 1. 1. 1. 1. 1. 1. 1. 1. 1. 1. 1. 1. 1. 1. 1.
      1. 1. 1. 1. 1. 1. 1. 1. 1. 1. 1. 1. 1. 255. 1. 1. 1. 1. 1. 1. 1.
      1. 1. 1. 1. 1. 1. 1. 1. 1. 1. 1. 1. 1. 1. 1. 1. 1. 1. 1. 1. 1. 1.
      1. 1. 1. 1. 1. 1. 1. 1. 1. 1. 1. 1. 1. 1. 1. 1. 1. 1. 1. 1. 255.
      1. 1. 1. 1. 1. 1. 1. 1. 1. 1. 1. 1. 1. 1. 1. 1. 1. 1. 1. 1. 1. 1.
      1. 1. 1. 1. 1. 1. 1. 1. 1. 1. 1. 1. 1. 1. 1. 1. 1. 1. 1. 1. 1. 1.
      1. 1. 1. 1. 1. 255. 1. 1. 1. 1. 1. 1. 1. 1. 1. 1. 1. 1. 1. 1. 1.
      1. 1. 1. 1. 1. 1. 1. 1. 1. 1. 1. 1. 1. 1. 1. 1. 1. 1. 1. 1. 1. 1.
      1. 1. 255. 255. 1. 1. 1. 1. 1. 1. 255. 255. 1. 1. 1. 1. 1. 1. 1.
      1. 1. 1. 1. 1. 1. 1. 1. 1. 1. 1. 1. 1. 1. 1. 1. 1. 1. 1. 1. 1. 1.
      1. 1. 1. 1. 1. 1. 1. 1. 1. 1. 1. 1. 1. 255. 255. 255. 255. 255.
      255. 255. 1. 1. 1. 1. 1. 1. 1. 1. 1. 1. 1. 1. 1. 1. 1. 1. 1. 1. 1.
      1. 1. 1. 1. 1. 1. 1. 1. 1. 1. 1. 1. 1. 1. 1. 1. 1. 1. 1. 1. 1. 1.
      1. 1. 1. 1. 1. 1. 1. 1. 1. 1. 1. 1. 1. 1. 1. 1. 1. 1. 1. 1. 1. 1.
      1. 1. 1. 1. 1. 1. 1. 1. 1. 1. 1. 1. 1. 1. 1. 1. 1. 1. 1. 1. 1. 1.
      1. 1. 1. 1. 1. 1. 1. 1. 1. 1. 1. 1. 1. 1. 1. 1. 1. 1. 1. 1. 1. 1.
      1. 1. 1. 1. 1. 1. 1. 1. 1. 1. 1. 1. 1. 1. 1. 1. 1. 1. 1. 1. 1. 1.
      1. 1. 1. 1. 1. 1. 1. 1. 1. 1. 1. 1. 1. 1. 1. 1. 1. 1. 1. 1. 1. 1.
      1. 1. 1. 1. 1. 1. 1. 1. 1. 1. 1. 1. 1. 1. 1. 1. 1. 1. 1. 1. 1. 1.
      1. 1. 1. 1. 1. 1. 1. 1. 1. 1. 1. 1. 1. 1. 1. 1. 1. 1. 1. 1. 1. 1.
      1. 1. 1. 1. 1. 1. 1. 1. 1. 1. 1. 1. 1. 1. 1. 1. 1. 1. 1. 1. 1. 1.
      1. 1. 1. 1. 1. 1. 1. 1. 1. 1. 1. 1. 1. 1. 1. 1. 1. 1. 1. 1. 1. 1.
      1. 1. 1. 1. 1. 1. 1. 1. 1. 1. 1. 1. 1. 1. 1. 1. 1. 1. 1. 1. 1. 1.
      1. 1. 1. 1. 1. 1. 1. 1. 1. 1. 1. 1. 1. 1. 1. 1. 1. 1. 1. 1. 1. 1.
